{"learner":{"attributes":{"scikit_learn":"{\"_estimator_type\": \"classifier\"}"},"feature_names":[],"feature_types":[],"gradient_booster":{"model":{"gbtree_model_param":{"num_parallel_tree":"1","num_trees":"600"},"iteration_indptr":[0,6,12,18,24,30,36,42,48,54,60,66,72,78,84,90,96,102,108,114,120,126,132,138,144,150,156,162,168,174,180,186,192,198,204,210,216,222,228,234,240,246,252,258,264,270,276,282,288,294,300,306,312,318,324,330,336,342,348,354,360,366,372,378,384,390,396,402,408,414,420,426,432,438,444,450,456,462,468,474,480,486,492,498,504,510,516,522,528,534,540,546,552,558,564,570,576,582,588,594,600],"tree_info":[0,1,2,3,4,5,0,1,2,3,4,5,0,1,2,3,4,5,0,1,2,3,4,5,0,1,2,3,4,5,0,1,2,3,4,5,0,1,2,3,4,5,0,1,2,3,4,5,0,1,2,3,4,5,0,1,2,3,4,5,0,1,2,3,4,5,0,1,2,3,4,5,0,1,2,3,4,5,0,1,2,3,4,5,0,1,2,3,4,5,0,1,2,3,4,5,0,1,2,3,4,5,0,1,2,3,4,5,0,1,2,3,4,5,0,1,2,3,4,5,0,1,2,3,4,5,0,1,2,3,4,5,0,1,2,3,4,5,0,1,2,3,4,5,0,1,2,3,4,5,0,1,2,3,4,5,0,1,2,3,4,5,0,1,2,3,4,5,0,1,2,3,4,5,0,1,2,3,4,5,0,1,2,3,4,5,0,1,2,3,4,5,0,1,2,3,4,5,0,1,2,3,4,5,0,1,2,3,4,5,0,1,2,3,4,5,0,1,2,3,4,5,0,1,2,3,4,5,0,1,2,3,4,5,0,1,2,3,4,5,0,1,2,3,4,5,0,1,2,3,4,5,0,1,2,3,4,5,0,1,2,3,4,5,0,1,2,3,4,5,0,1,2,3,4,5,0,1,2,3,4,5,0,1,2,3,4,5,0,1,2,3,4,5,0,1,2,3,4,5,0,1,2,3,4,5,0,1,2,3,4,5,0,1,2,3,4,5,0,1,2,3,4,5,0,1,2,3,4,5,0,1,2,3,4,5,0,1,2,3,4,5,0,1,2,3,4,5,0,1,2,3,4,5,0,1,2,3,4,5,0,1,2,3,4,5,0,1,2,3,4,5,0,1,2,3,4,5,0,1,2,3,4,5,0,1,2,3,4,5,0,1,2,3,4,5,0,1,2,3,4,5,0,1,2,3,4,5,0,1,2,3,4,5,0,1,2,3,4,5,0,1,2,3,4,5,0,1,2,3,4,5,0,1,2,3,4,5,0,1,2,3,4,5,0,1,2,3,4,5,0,1,2,3,4,5,0,1,2,3,4,5,0,1,2,3,4,5,0,1,2,3,4,5,0,1,2,3,4,5,0,1,2,3,4,5,0,1,2,3,4,5,0,1,2,3,4,5,0,1,2,3,4,5,0,1,2,3,4,5,0,1,2,3,4,5,0,1,2,3,4,5,0,1,2,3,4,5,0,1,2,3,4,5,0,1,2,3,4,5,0,1,2,3,4,5,0,1,2,3,4,5,0,1,2,3,4,5,0,1,2,3,4,5,0,1,2,3,4,5,0,1,2,3,4,5,0,1,2,3,4,5,0,1,2,3,4,5,0,1,2,3,4,5,0,1,2,3,4,5],"trees":[{"base_weights":[-3.1914893E-1,3.4411764E-1,-1.7131367E-1],"categories":[],"categories_nodes":[],"categories_segments":[],"categories_sizes":[],"default_left":[0,0,0],"id":0,"left_children":[1,-1,-1],"loss_changes":[9.334343E0,0E0,0E0],"parents":[2147483647,0,0],"right_children":[2,-1,-1],"split_conditions":[-1E0,3.4411764E-1,-1.7131367E-1],"split_indices":[0,0,0],"split_type":[0,0,0],"sum_hessian":[2.2500002E1,2.777778E0,1.9722223E1],"tree_param":{"num_deleted":"0","num_feature":"3","num_nodes":"3","size_leaf_vector":"1"}},{"base_weights":[-4.0425533E-1,8.275862E-1,-1.7154047E-1,3.3157894E-1,4.736842E-2],"categories":[],"categories_nodes":[],"categories_segments":[],"categories_sizes":[],"default_left":[0,0,0,0,0],"id":1,"left_children":[1,3,-1,-1,-1],"loss_changes":[5.32339E0,4.2468238E-1,0E0,0E0,0E0],"parents":[2147483647,0,0,1,1],"right_children":[2,4,-1,-1,-1],"split_conditions":[-1.1857142E0,-5.263158E-2,-1.7154047E-1,3.3157894E-1,4.736842E-2],"split_indices":[0,2,0,0,0],"split_type":[0,0,0,0,0],"sum_hessian":[2.2500002E1,2.2222223E0,2.0277779E1,1.1111112E0,1.1111112E0],"tree_param":{"num_deleted":"0","num_feature":"3","num_nodes":"5","size_leaf_vector":"1"}},{"base_weights":[-1.06382996E-1,4.2857137E-1,-1.6638654E-1,-2.0338984E-1,1.0776699E0,-1.3846155E-1,2.0689653E-1,2.0930227E-2,4.1538462E-1,1.8947369E-1,-9.4736844E-2],"categories":[],"categories_nodes":[],"categories_segments":[],"categories_sizes":[],"default_left":[0,0,0,0,0,0,0,0,0,0,0],"id":2,"left_children":[1,3,-1,5,7,-1,9,-1,-1,-1,-1],"loss_changes":[5.8726974E0,4.8453884E0,0E0,7.898215E-1,1.6736894E0,0E0,9.147005E-1,0E0,0E0,0E0,0E0],"parents":[2147483647,0,0,1,1,3,3,4,4,6,6],"right_children":[2,4,-1,6,8,-1,10,-1,-1,-1,-1],"split_conditions":[-1.14285715E-1,-5.714286E-1,-1.6638654E-1,-7.4647886E-1,-4.2105263E-1,-1.3846155E-1,-3.943662E-1,2.0930227E-2,4.1538462E-1,1.8947369E-1,-9.4736844E-2],"split_indices":[0,0,0,1,2,0,1,0,0,0,0],"split_type":[0,0,0,0,0,0,0,0,0,0,0],"sum_hessian":[2.2500002E1,1.0277779E1,1.2222223E1,5.555556E0,4.7222223E0,3.3333335E0,2.2222223E0,1.388889E0,3.3333335E0,1.1111112E0,1.1111112E0],"tree_param":{"num_deleted":"0","num_feature":"3","num_nodes":"11","size_leaf_vector":"1"}},{"base_weights":[2.3404251E-1,1.0183486E0,-1.6547087E-1,-1.3235295E-1,4.5E-1],"categories":[],"categories_nodes":[],"categories_segments":[],"categories_sizes":[],"default_left":[0,0,0,0,0],"id":3,"left_children":[1,3,-1,-1,-1],"loss_changes":[1.5041456E1,9.175659E0,0E0,0E0,0E0],"parents":[2147483647,0,0,1,1],"right_children":[2,4,-1,-1,-1],"split_conditions":[0E0,-1E0,-1.6547087E-1,-1.3235295E-1,4.5E-1],"split_indices":[0,0,0,0,0],"split_type":[0,0,0,0,0],"sum_hessian":[2.2500002E1,1.1111112E1,1.1388889E1,2.777778E0,8.333334E0],"tree_param":{"num_deleted":"0","num_feature":"3","num_nodes":"5","size_leaf_vector":"1"}},{"base_weights":[-3.6170214E-1,-1.6513762E-1,-1.4798208E-1,7.8082186E-1,-1.6071428E-1,8.4905654E-2,3.3157894E-1],"categories":[],"categories_nodes":[],"categories_segments":[],"categories_sizes":[],"default_left":[0,0,0,0,0,0,0],"id":4,"left_children":[1,-1,3,5,-1,-1,-1],"loss_changes":[8.665571E-1,0E0,4.8798733E0,3.421936E-1,0E0,0E0,0E0],"parents":[2147483647,0,0,2,2,3,3],"right_children":[2,-1,4,6,-1,-1,-1],"split_conditions":[0E0,-1.6513762E-1,3.2857144E-1,3.1578946E-1,-1.6071428E-1,8.4905654E-2,3.3157894E-1],"split_indices":[0,0,0,2,0,0,0],"split_type":[0,0,0,0,0,0,0],"sum_hessian":[2.2500002E1,1.1111112E1,1.1388889E1,3.0555558E0,8.333334E0,1.9444445E0,1.1111112E0],"tree_param":{"num_deleted":"0","num_feature":"3","num_nodes":"7","size_leaf_vector":"1"}},{"base_weights":[9.5744675E-1,-1.6547087E-1,2.4220183E0,3.4411764E-1,8.035714E-1],"categories":[],"categories_nodes":[],"categories_segments":[],"categories_sizes":[],"default_left":[0,0,0,0,0],"id":5,"left_children":[1,-1,3,-1,-1],"loss_changes":[5.3272377E1,0E0,8.8899994E-1,0E0,0E0],"parents":[2147483647,0,0,2,2],"right_children":[2,-1,4,-1,-1],"split_conditions":[1.4285714E-2,-1.6547087E-1,3.2857144E-1,3.4411764E-1,8.035714E-1],"split_indices":[0,0,0,0,0],"split_type":[0,0,0,0,0],"sum_hessian":[2.2500002E1,1.1388889E1,1.1111112E1,2.777778E0,8.333334E0],"tree_param":{"num_deleted":"0","num_feature":"3","num_nodes":"5","size_leaf_vector":"1"}},{"base_weights":[-2.8046247E-1,7.985128E-1,-1.6365337E-1,4.5223564E-2,9.509768E-1,3.732555E-1,4.3538194E-2],"categories":[],"categories_nodes":[],"categories_segments":[],"categories_sizes":[],"default_left":[0,0,0,0,0,0,0],"id":6,"left_children":[1,3,-1,-1,5,-1,-1],"loss_changes":[6.4933667E0,3.092835E-1,0E0,0E0,6.515198E-1,0E0,0E0],"parents":[2147483647,0,0,1,1,4,4],"right_children":[2,4,-1,-1,6,-1,-1],"split_conditions":[-1E0,-1.5857143E0,-1.6365337E-1,4.5223564E-2,-9.2957747E-1,3.732555E-1,4.3538194E-2],"split_indices":[0,0,0,0,1,0,0],"split_type":[0,0,0,0,0,0,0],"sum_hessian":[2.0182411E1,3.5831642E0,1.6599247E1,1.0615836E0,2.5215807E0,1.4500412E0,1.0715394E0],"tree_param":{"num_deleted":"0","num_feature":"3","num_nodes":"7","size_leaf_vector":"1"}},{"base_weights":[-3.6258104E-1,6.805509E-1,-1.6398712E-1,2.6786736E-1,4.0205095E-2],"categories":[],"categories_nodes":[],"categories_segments":[],"categories_sizes":[],"default_left":[0,0,0,0,0],"id":7,"left_children":[1,3,-1,-1,-1],"loss_changes":[4.3344107E0,2.9125237E-1,0E0,0E0,0E0],"parents":[2147483647,0,0,1,1],"right_children":[2,4,-1,-1,-1],"split_conditions":[-1.1857142E0,-5.263158E-2,-1.6398712E-1,2.6786736E-1,4.0205095E-2],"split_indices":[0,2,0,0,0],"split_type":[0,0,0,0,0],"sum_hessian":[1.9639597E1,2.5408082E0,1.709879E1,1.3734564E0,1.167352E0],"tree_param":{"num_deleted":"0","num_feature":"3","num_nodes":"5","size_leaf_vector":"1"}},{"base_weights":[-7.903239E-2,3.4714672E-1,-1.5806475E-1,-1.8349876E-1,7.929006E-1,-1.3194539E-1,1.8355428E-1,1.795508E-2,9.7749186E-1,-9.3636736E-2,1.710814E-1,3.468369E-1,4.2881213E-2],"categories":[],"categories_nodes":[],"categories_segments":[],"categories_sizes":[],"default_left":[0,0,0,0,0,0,0,0,0,0,0,0,0],"id":8,"left_children":[1,3,-1,5,7,-1,9,-1,11,-1,-1,-1,-1],"loss_changes":[4.43867E0,2.990545E0,0E0,6.737475E-1,8.514557E-1,0E0,8.100397E-1,0E0,6.258702E-1,0E0,0E0,0E0,0E0],"parents":[2147483647,0,0,1,1,3,3,4,4,6,6,8,8],"right_children":[2,4,-1,6,8,-1,10,-1,12,-1,-1,-1,-1],"split_conditions":[-1.14285715E-1,-5.714286E-1,-1.5806475E-1,-7.4647886E-1,-4.2105263E-1,-1.3194539E-1,-1.5789473E-1,1.795508E-2,6.315789E-1,-9.3636736E-2,1.710814E-1,3.468369E-1,4.2881213E-2],"split_indices":[0,0,0,1,2,0,2,0,2,0,0,0,0],"split_type":[0,0,0,0,0,0,0,0,0,0,0,0,0],"sum_hessian":[2.1297327E1,1.1027907E1,1.026942E1,5.3031454E0,5.724762E0,3.0058618E0,2.2972834E0,1.417964E0,4.306798E0,1.091342E0,1.2059416E0,3.2300985E0,1.0766995E0],"tree_param":{"num_deleted":"0","num_feature":"3","num_nodes":"13","size_leaf_vector":"1"}},{"base_weights":[1.7835428E-1,6.6160464E-1,-1.5684626E-1,-1.2516023E-1,9.1082674E-1,3.7309897E-1,6.4019257E-1,3.0661502E-1,1.0474136E-1],"categories":[],"categories_nodes":[],"categories_segments":[],"categories_sizes":[],"default_left":[0,0,0,0,0,0,0,0,0],"id":9,"left_children":[1,3,-1,-1,5,-1,7,-1,-1],"loss_changes":[8.625587E0,4.387907E0,0E0,0E0,3.2289505E-1,0E0,6.3375854E-1,0E0,0E0],"parents":[2147483647,0,0,1,1,4,4,6,6],"right_children":[2,4,-1,-1,6,-1,8,-1,-1],"split_conditions":[0E0,-1E0,-1.5684626E-1,-1.2516023E-1,-2.1052632E-1,3.7309897E-1,-7.4647886E-1,3.0661502E-1,1.0474136E-1],"split_indices":[0,0,0,0,2,0,1,0,0],"split_type":[0,0,0,0,0,0,0,0,0],"sum_hessian":[2.343516E1,1.3906929E1,9.528232E0,2.4833336E0,1.1423595E1,3.5106714E0,7.9129243E0,2.336261E0,5.576663E0],"tree_param":{"num_deleted":"0","num_feature":"3","num_nodes":"9","size_leaf_vector":"1"}},{"base_weights":[-3.210954E-1,-1.5779077E-1,-1.0285821E-1,6.1328596E-1,-1.5078582E-1,1.3819619E-1,3.3336744E-1,-1.0391133E-1,1.7116158E-1],"categories":[],"categories_nodes":[],"categories_segments":[],"categories_sizes":[],"default_left":[0,0,0,0,0,0,0,0,0],"id":10,"left_children":[1,-1,3,5,-1,7,-1,-1,-1],"loss_changes":[8.833473E-1,0E0,3.5705962E0,9.1871154E-1,0E0,9.228178E-1,0E0,0E0,0E0],"parents":[2147483647,0,0,2,2,3,3,5,5],"right_children":[2,-1,4,6,-1,8,-1,-1,-1],"split_conditions":[0E0,-1.5779077E-1,3.2857144E-1,3.6842105E-1,-1.5078582E-1,1.7142858E-1,3.3336744E-1,-1.0391133E-1,1.7116158E-1],"split_indices":[0,0,0,2,0,0,0,0,0],"split_type":[0,0,0,0,0,0,0,0,0],"sum_hessian":[1.9966784E1,9.571397E0,1.0395387E1,3.5326898E0,6.862697E0,2.461591E0,1.0710988E0,1.2544545E0,1.2071365E0],"tree_param":{"num_deleted":"0","num_feature":"3","num_nodes":"9","size_leaf_vector":"1"}},{"base_weights":[6.2710273E-1,-1.5822431E-1,3.840302E-1],"categories":[],"categories_nodes":[],"categories_segments":[],"categories_sizes":[],"default_left":[0,0,0],"id":11,"left_children":[1,-1,-1],"loss_changes":[2.1786617E1,0E0,0E0],"parents":[2147483647,0,0],"right_children":[2,-1,-1],"split_conditions":[1.4285714E-2,-1.5822431E-1,3.840302E-1],"split_indices":[0,0,0],"split_type":[0,0,0],"sum_hessian":[2.700312E1,9.82485E0,1.717827E1],"tree_param":{"num_deleted":"0","num_feature":"3","num_nodes":"3","size_leaf_vector":"1"}},{"base_weights":[-2.460218E-1,6.361945E-1,-1.5746656E-1,3.9856195E-2,7.43285E-1,2.8990108E-1,3.2280818E-2],"categories":[],"categories_nodes":[],"categories_segments":[],"categories_sizes":[],"default_left":[0,0,0,0,0,0,0],"id":12,"left_children":[1,3,-1,-1,5,-1,-1],"loss_changes":[4.9975576E0,1.7103267E-1,0E0,0E0,4.5031452E-1,0E0,0E0],"parents":[2147483647,0,0,1,1,4,4],"right_children":[2,4,-1,-1,6,-1,-1],"split_conditions":[-1E0,-1.5857143E0,-1.5746656E-1,3.9856195E-2,-9.2957747E-1,2.8990108E-1,3.2280818E-2],"split_indices":[0,0,0,0,1,0,0],"split_type":[0,0,0,0,0,0,0],"sum_hessian":[1.7956232E1,4.0049396E0,1.3951292E1,1.0956771E0,2.9092624E0,1.7685472E0,1.1407152E0],"tree_param":{"num_deleted":"0","num_feature":"3","num_nodes":"7","size_leaf_vector":"1"}},{"base_weights":[-3.2743403E-1,5.605457E-1,-1.5789545E-1,2.1576273E-1,3.5483785E-2],"categories":[],"categories_nodes":[],"categories_segments":[],"categories_sizes":[],"default_left":[0,0,0,0,0],"id":13,"left_children":[1,3,-1,-1,-1],"loss_changes":[3.5119839E0,1.828121E-1,0E0,0E0,0E0],"parents":[2147483647,0,0,1,1],"right_children":[2,4,-1,-1,-1],"split_conditions":[-1.1857142E0,-5.263158E-2,-1.5789545E-1,2.1576273E-1,3.5483785E-2],"split_indices":[0,2,0,0,0],"split_type":[0,0,0,0,0],"sum_hessian":[1.7215548E1,2.8174987E0,1.4398048E1,1.6127383E0,1.2047604E0],"tree_param":{"num_deleted":"0","num_feature":"3","num_nodes":"5","size_leaf_vector":"1"}},{"base_weights":[-6.0981557E-2,2.823708E-1,-1.5093175E-1,-1.2613922E-1,5.095773E-1,-1.2105736E-2,6.429869E-1,2.4225919E-1,-3.4038746E-3],"categories":[],"categories_nodes":[],"categories_segments":[],"categories_sizes":[],"default_left":[0,0,0,0,0,0,0,0,0],"id":14,"left_children":[1,3,-1,-1,5,-1,7,-1,-1],"loss_changes":[3.3408802E0,2.2105856E0,0E0,0E0,7.5222635E-1,0E0,8.7326956E-1,0E0,0E0],"parents":[2147483647,0,0,1,1,4,4,6,6],"right_children":[2,4,-1,-1,6,-1,8,-1,-1],"split_conditions":[-1.14285715E-1,-9.285714E-1,-1.5093175E-1,-1.2613922E-1,-2.1052632E-1,-1.2105736E-2,6.315789E-1,2.4225919E-1,-3.4038746E-3],"split_indices":[0,0,0,0,2,0,2,0,0],"split_type":[0,0,0,0,0,0,0,0,0],"sum_hessian":[2.007197E1,1.1501371E1,8.570599E0,2.601958E0,8.899414E0,1.8736297E0,7.025784E0,5.426953E0,1.5988312E0],"tree_param":{"num_deleted":"0","num_feature":"3","num_nodes":"9","size_leaf_vector":"1"}},{"base_weights":[1.5235728E-1,5.02478E-1,-1.494357E-1,-1.1892278E-1,6.753009E-1,7.2596115E-1,6.435382E-2,2.9927146E-1,1.4111619E-1],"categories":[],"categories_nodes":[],"categories_segments":[],"categories_sizes":[],"default_left":[0,0,0,0,0,0,0,0,0],"id":15,"left_children":[1,3,-1,-1,5,7,-1,-1,-1],"loss_changes":[5.729141E0,2.7745414E0,0E0,0E0,1.6885662E-1,3.7124157E-1,0E0,0E0,0E0],"parents":[2147483647,0,0,1,1,4,4,5,5],"right_children":[2,4,-1,-1,6,8,-1,-1,-1],"split_conditions":[0E0,-1E0,-1.494357E-1,-1.1892278E-1,1.4084508E-1,1.5789473E-1,6.435382E-2,2.9927146E-1,1.4111619E-1],"split_indices":[0,0,0,0,1,2,0,0,0],"split_type":[0,0,0,0,0,0,0,0,0],"sum_hessian":[2.3056913E1,1.5136937E1,7.919977E0,2.2323413E0,1.2904596E1,1.1107888E1,1.7967075E0,3.9775252E0,7.130363E0],"tree_param":{"num_deleted":"0","num_feature":"3","num_nodes":"9","size_leaf_vector":"1"}},{"base_weights":[-2.8482914E-1,-1.5179613E-1,-6.045732E-2,5.409197E-1,-1.4279154E-1,1.3660167E-1,2.7614367E-1,-9.7439215E-2,1.5199737E-1],"categories":[],"categories_nodes":[],"categories_segments":[],"categories_sizes":[],"default_left":[0,0,0,0,0,0,0,0,0],"id":16,"left_children":[1,-1,3,5,-1,7,-1,-1,-1],"loss_changes":[8.985145E-1,0E0,2.863735E0,6.001266E-1,0E0,7.5610656E-1,0E0,0E0,0E0],"parents":[2147483647,0,0,2,2,3,3,5,5],"right_children":[2,-1,4,6,-1,8,-1,-1,-1],"split_conditions":[0E0,-1.5179613E-1,3.2857144E-1,3.6842105E-1,-1.4279154E-1,1.7142858E-1,2.7614367E-1,-9.7439215E-2,1.5199737E-1],"split_indices":[0,0,0,2,0,0,0,0,0],"split_type":[0,0,0,0,0,0,0,0,0],"sum_hessian":[1.7723791E1,8.293731E0,9.430061E0,3.7299175E0,5.7001433E0,2.4645252E0,1.2653923E0,1.1513208E0,1.3132043E0],"tree_param":{"num_deleted":"0","num_feature":"3","num_nodes":"9","size_leaf_vector":"1"}},{"base_weights":[4.698675E-1,-1.5226412E-1,9.0297073E-1,4.118391E-1,2.9009372E-1,1.7798156E-1,4.3949317E-3],"categories":[],"categories_nodes":[],"categories_segments":[],"categories_sizes":[],"default_left":[0,0,0,0,0,0,0],"id":17,"left_children":[1,-1,3,5,-1,-1,-1],"loss_changes":[1.2693824E1,0E0,2.4270248E-1,2.8624058E-1,0E0,0E0,0E0],"parents":[2147483647,0,0,2,2,3,3],"right_children":[2,-1,4,6,-1,-1,-1],"split_conditions":[1.4285714E-2,-1.5226412E-1,2.4285714E-1,1.5714286E-1,2.9009372E-1,1.7798156E-1,4.3949317E-3],"split_indices":[0,0,0,0,0,0,0],"split_type":[0,0,0,0,0,0,0],"sum_hessian":[2.7903624E1,8.515104E0,1.938852E1,3.0926871E0,1.6295834E1,1.7840657E0,1.3086214E0],"tree_param":{"num_deleted":"0","num_feature":"3","num_nodes":"7","size_leaf_vector":"1"}},{"base_weights":[-2.1673238E-1,5.2108115E-1,-1.5202862E-1,3.42197E-2,6.048263E-1,2.3857634E-1,2.2540856E-2],"categories":[],"categories_nodes":[],"categories_segments":[],"categories_sizes":[],"default_left":[0,0,0,0,0,0,0],"id":18,"left_children":[1,3,-1,-1,5,-1,-1],"loss_changes":[3.8798852E0,1.10334516E-1,0E0,0E0,3.5691488E-1,0E0,0E0],"parents":[2147483647,0,0,1,1,4,4],"right_children":[2,4,-1,-1,6,-1,-1],"split_conditions":[-1E0,-1.5857143E0,-1.5202862E-1,3.42197E-2,-9.2957747E-1,2.3857634E-1,2.2540856E-2],"split_indices":[0,0,0,0,1,0,0],"split_type":[0,0,0,0,0,0,0],"sum_hessian":[1.5897326E1,4.2610044E0,1.1636322E1,1.130183E0,3.1308215E0,1.9341279E0,1.1966934E0],"tree_param":{"num_deleted":"0","num_feature":"3","num_nodes":"7","size_leaf_vector":"1"}},{"base_weights":[-2.951685E-1,4.702056E-1,-1.5255624E-1,2.4233269E-2,1.801666E-1],"categories":[],"categories_nodes":[],"categories_segments":[],"categories_sizes":[],"default_left":[0,0,0,0,0],"id":19,"left_children":[1,3,-1,-1,-1],"loss_changes":[2.8601413E0,1.5547603E-1,0E0,0E0,0E0],"parents":[2147483647,0,0,1,1],"right_children":[2,4,-1,-1,-1],"split_conditions":[-1.1857142E0,-1.4084507E0,-1.5255624E-1,2.4233269E-2,1.801666E-1],"split_indices":[0,1,0,0,0],"split_type":[0,0,0,0,0],"sum_hessian":[1.5050971E1,3.0185204E0,1.2032451E1,1.1631713E0,1.8553492E0],"tree_param":{"num_deleted":"0","num_feature":"3","num_nodes":"5","size_leaf_vector":"1"}},{"base_weights":[-4.6328723E-2,2.3615696E-1,-1.4469396E-1,-1.2022583E-1,4.1782412E-1,-6.11419E-3,5.114145E-1,1.9114448E-1,-5.693648E-3],"categories":[],"categories_nodes":[],"categories_segments":[],"categories_sizes":[],"default_left":[0,0,0,0,0,0,0,0,0],"id":20,"left_children":[1,3,-1,-1,5,-1,7,-1,-1],"loss_changes":[2.5619323E0,1.6407343E0,0E0,0E0,4.368143E-1,0E0,5.859721E-1,0E0,0E0],"parents":[2147483647,0,0,1,1,4,4,6,6],"right_children":[2,4,-1,-1,6,-1,8,-1,-1],"split_conditions":[-1.14285715E-1,-9.285714E-1,-1.4469396E-1,-1.2022583E-1,-2.1052632E-1,-6.11419E-3,6.315789E-1,1.9114448E-1,-5.693648E-3],"split_indices":[0,0,0,0,2,0,2,0,0],"split_type":[0,0,0,0,0,0,0,0,0],"sum_hessian":[1.8876936E1,1.1733094E1,7.1438413E0,2.3362894E0,9.396805E0,1.7914052E0,7.6053996E0,5.9852715E0,1.6201284E0],"tree_param":{"num_deleted":"0","num_feature":"3","num_nodes":"9","size_leaf_vector":"1"}},{"base_weights":[1.301E-1,3.9576134E-1,-1.4276718E-1,-1.1309036E-1,5.264936E-1,5.678484E-1,4.678984E-2,2.3662692E-1,1.0942663E-1],"categories":[],"categories_nodes":[],"categories_segments":[],"categories_sizes":[],"default_left":[0,0,0,0,0,0,0,0,0],"id":21,"left_children":[1,3,-1,-1,5,7,-1,-1,-1],"loss_changes":[3.9370003E0,1.8889906E0,0E0,0E0,1.37146E-1,2.898202E-1,0E0,0E0,0E0],"parents":[2147483647,0,0,1,1,4,4,5,5],"right_children":[2,4,-1,-1,6,8,-1,-1,-1],"split_conditions":[0E0,-1E0,-1.4276718E-1,-1.1309036E-1,1.4084508E-1,1.5789473E-1,4.678984E-2,2.3662692E-1,1.0942663E-1],"split_indices":[0,0,0,0,1,2,0,0,0],"split_type":[0,0,0,0,0,0,0,0,0],"sum_hessian":[2.2285307E1,1.5734395E1,6.5509124E0,2.0042443E0,1.373015E1,1.1872512E1,1.8576386E0,4.305557E0,7.5669546E0],"tree_param":{"num_deleted":"0","num_feature":"3","num_nodes":"9","size_leaf_vector":"1"}},{"base_weights":[-2.537347E-1,-1.4622061E-1,-2.885148E-2,4.614059E-1,-1.3493285E-1,1.2076145E-1,2.2995593E-1,-9.4188325E-2,1.3449015E-1],"categories":[],"categories_nodes":[],"categories_segments":[],"categories_sizes":[],"default_left":[0,0,0,0,0,0,0,0,0],"id":22,"left_children":[1,-1,3,5,-1,7,-1,-1,-1],"loss_changes":[8.636153E-1,0E0,2.1832578E0,4.1842413E-1,0E0,6.405278E-1,0E0,0E0,0E0],"parents":[2147483647,0,0,2,2,3,3,5,5],"right_children":[2,-1,4,6,-1,8,-1,-1,-1],"split_conditions":[0E0,-1.4622061E-1,3.2857144E-1,3.6842105E-1,-1.3493285E-1,1.7142858E-1,2.2995593E-1,-9.4188325E-2,1.3449015E-1],"split_indices":[0,0,0,2,0,0,0,0,0],"split_type":[0,0,0,0,0,0,0,0,0],"sum_hessian":[1.570244E1,7.1283236E0,8.574117E0,3.9164248E0,4.657692E0,2.5099647E0,1.4064599E0,1.0963289E0,1.4136358E0],"tree_param":{"num_deleted":"0","num_feature":"3","num_nodes":"9","size_leaf_vector":"1"}},{"base_weights":[3.8196844E-1,-1.4670663E-1,7.208034E-1,3.8016272E-1,2.3970601E-1,1.807479E-1,1.1878387E-2],"categories":[],"categories_nodes":[],"categories_segments":[],"categories_sizes":[],"default_left":[0,0,0,0,0,0,0],"id":23,"left_children":[1,-1,3,5,-1,-1,-1],"loss_changes":[8.487852E0,0E0,2.3577595E-1,4.069109E-1,0E0,0E0,0E0],"parents":[2147483647,0,0,2,2,3,3],"right_children":[2,-1,4,6,-1,-1,-1],"split_conditions":[1.4285714E-2,-1.4670663E-1,3.2857144E-1,1.7142858E-1,2.3970601E-1,1.807479E-1,1.1878387E-2],"split_indices":[0,0,0,0,0,0,0],"split_type":[0,0,0,0,0,0,0],"sum_hessian":[2.6566101E1,7.31621E0,1.9249891E1,4.6890445E0,1.4560847E1,2.3716788E0,2.3173656E0],"tree_param":{"num_deleted":"0","num_feature":"3","num_nodes":"7","size_leaf_vector":"1"}},{"base_weights":[-1.9090246E-1,4.383478E-1,-1.470513E-1,4.821888E-2,1.6828582E-1],"categories":[],"categories_nodes":[],"categories_segments":[],"categories_sizes":[],"default_left":[0,0,0,0,0],"id":24,"left_children":[1,3,-1,-1,-1],"loss_changes":[3.046123E0,9.2745066E-2,0E0,0E0,0E0],"parents":[2147483647,0,0,1,1],"right_children":[2,4,-1,-1,-1],"split_conditions":[-1E0,-5.263158E-2,-1.470513E-1,4.821888E-2,1.6828582E-1],"split_indices":[0,2,0,0,0],"split_type":[0,0,0,0,0],"sum_hessian":[1.4034706E1,4.3737044E0,9.661002E0,2.0477881E0,2.3259165E0],"tree_param":{"num_deleted":"0","num_feature":"3","num_nodes":"5","size_leaf_vector":"1"}},{"base_weights":[-2.6455355E-1,3.9768556E-1,-1.4768575E-1,1.6164199E-1,1.7146569E-2],"categories":[],"categories_nodes":[],"categories_segments":[],"categories_sizes":[],"default_left":[0,0,0,0,0],"id":25,"left_children":[1,3,-1,-1,-1],"loss_changes":[2.336607E0,1.7034435E-1,0E0,0E0,0E0],"parents":[2147483647,0,0,1,1],"right_children":[2,4,-1,-1,-1],"split_conditions":[-1.1857142E0,-5.263158E-2,-1.4768575E-1,1.6164199E-1,1.7146569E-2],"split_indices":[0,2,0,0,0],"split_type":[0,0,0,0,0],"sum_hessian":[1.3195256E1,3.1855319E0,1.0009725E1,1.8405302E0,1.3450018E0],"tree_param":{"num_deleted":"0","num_feature":"3","num_nodes":"5","size_leaf_vector":"1"}},{"base_weights":[-3.213256E-2,2.039489E-1,-1.3874608E-1,-1.7747475E-1,4.659082E-1,-1.2887853E-1,1.3851336E-1,1.9810073E-1,2.1072808E-1,-9.624074E-2,1.6822323E-1,-7.2703496E-2,2.1880993E-1],"categories":[],"categories_nodes":[],"categories_segments":[],"categories_sizes":[],"default_left":[0,0,0,0,0,0,0,0,0,0,0,0,0],"id":26,"left_children":[1,3,-1,5,7,-1,9,-1,11,-1,-1,-1,-1],"loss_changes":[1.9918616E0,1.357095E0,0E0,5.309191E-1,2.4968874E-1,0E0,8.3582693E-1,0E0,1.3182585E0,0E0,0E0,0E0,0E0],"parents":[2147483647,0,0,1,1,3,3,4,4,6,6,8,8],"right_children":[2,4,-1,6,8,-1,10,-1,12,-1,-1,-1,-1],"split_conditions":[-1.14285715E-1,-5.714286E-1,-1.3874608E-1,2.631579E-1,-4.2857143E-1,-1.2887853E-1,-7.605634E-1,1.9810073E-1,-4.225352E-2,-9.624074E-2,1.6822323E-1,-7.2703496E-2,2.1880993E-1],"split_indices":[0,0,0,2,0,0,1,0,1,0,0,0,0],"split_type":[0,0,0,0,0,0,0,0,0,0,0,0,0],"sum_hessian":[1.7676794E1,1.1754606E1,5.9221873E0,4.9173093E0,6.837297E0,2.5350869E0,2.3822224E0,2.9794571E0,3.8578398E0,1.2560605E0,1.1261618E0,2.3434086E0,1.5144311E0],"tree_param":{"num_deleted":"0","num_feature":"3","num_nodes":"13","size_leaf_vector":"1"}},{"base_weights":[1.12270854E-1,3.2045886E-1,-1.3633525E-1,-1.0734041E-1,4.2505896E-1,5.91026E-1,2.9952276E-1,5.1969226E-2,2.1088862E-1,1.7386685E-1,3.4933507E-2],"categories":[],"categories_nodes":[],"categories_segments":[],"categories_sizes":[],"default_left":[0,0,0,0,0,0,0,0,0,0,0],"id":27,"left_children":[1,3,-1,-1,5,7,9,-1,-1,-1,-1],"loss_changes":[2.7674432E0,1.3466763E0,0E0,0E0,1.3644075E-1,1.3318372E-1,4.756207E-1,0E0,0E0,0E0,0E0],"parents":[2147483647,0,0,1,1,4,4,5,5,6,6],"right_children":[2,4,-1,-1,6,8,10,-1,-1,-1,-1],"split_conditions":[0E0,-1E0,-1.3633525E-1,-1.0734041E-1,-2.1052632E-1,-1.0526316E0,-7.4647886E-1,5.1969226E-2,2.1088862E-1,1.7386685E-1,3.4933507E-2],"split_indices":[0,0,0,0,2,2,1,0,0,0,0],"split_type":[0,0,0,0,0,0,0,0,0,0,0],"sum_hessian":[2.1221622E1,1.5837996E1,5.383627E0,1.7927265E0,1.4045269E1,4.4517508E0,9.593518E0,1.4790103E0,2.9727404E0,2.9364035E0,6.6571145E0],"tree_param":{"num_deleted":"0","num_feature":"3","num_nodes":"11","size_leaf_vector":"1"}},{"base_weights":[-2.272712E-1,-1.4100868E-1,-5.062728E-3,3.9187577E-1,-1.2704161E-1,9.5180586E-2,1.9895604E-1,-8.880994E-2,1.0948579E-1],"categories":[],"categories_nodes":[],"categories_segments":[],"categories_sizes":[],"default_left":[0,0,0,0,0,0,0,0,0],"id":28,"left_children":[1,-1,3,5,-1,7,-1,-1,-1],"loss_changes":[8.018358E-1,0E0,1.6265906E0,3.419773E-1,0E0,4.8495528E-1,0E0,0E0,0E0],"parents":[2147483647,0,0,2,2,3,3,5,5],"right_children":[2,-1,4,6,-1,8,-1,-1,-1],"split_conditions":[0E0,-1.4100868E-1,3.2857144E-1,3.6842105E-1,-1.2704161E-1,1.7142858E-1,1.9895604E-1,-8.880994E-2,1.0948579E-1],"split_indices":[0,0,0,2,0,0,0,0,0],"split_type":[0,0,0,0,0,0,0,0,0],"sum_hessian":[1.3908663E1,6.113998E0,7.794665E0,4.032505E0,3.7621603E0,2.5713708E0,1.461134E0,1.0097387E0,1.5616322E0],"tree_param":{"num_deleted":"0","num_feature":"3","num_nodes":"9","size_leaf_vector":"1"}},{"base_weights":[3.22052E-1,-1.4150344E-1,6.0970867E-1,2.4576174E-1,2.013496E-1,1.1560492E-1,-1.0093965E-2],"categories":[],"categories_nodes":[],"categories_segments":[],"categories_sizes":[],"default_left":[0,0,0,0,0,0,0],"id":29,"left_children":[1,-1,3,5,-1,-1,-1],"loss_changes":[6.0437465E0,0E0,2.5869894E-1,1.8122098E-1,0E0,0E0,0E0],"parents":[2147483647,0,0,2,2,3,3],"right_children":[2,-1,4,6,-1,-1,-1],"split_conditions":[1.4285714E-2,-1.4150344E-1,2.4285714E-1,3.1578946E-1,2.013496E-1,1.1560492E-1,-1.0093965E-2],"split_indices":[0,0,0,2,0,0,0],"split_type":[0,0,0,0,0,0,0],"sum_hessian":[2.4210743E1,6.2700596E0,1.7940683E1,3.3140125E0,1.4626671E1,1.9571085E0,1.3569041E0],"tree_param":{"num_deleted":"0","num_feature":"3","num_nodes":"7","size_leaf_vector":"1"}},{"base_weights":[-1.6879345E-1,3.6838156E-1,-1.4229293E-1,2.0809397E-2,4.3700734E-1,1.8616861E-1,2.9389092E-3],"categories":[],"categories_nodes":[],"categories_segments":[],"categories_sizes":[],"default_left":[0,0,0,0,0,0,0],"id":30,"left_children":[1,3,-1,-1,5,-1,-1],"loss_changes":[2.383288E0,8.13539E-2,0E0,0E0,3.2619727E-1,0E0,0E0],"parents":[2147483647,0,0,1,1,4,4],"right_children":[2,4,-1,-1,6,-1,-1],"split_conditions":[-1E0,-1.5857143E0,-1.4229293E-1,2.0809397E-2,-9.2957747E-1,1.8616861E-1,2.9389092E-3],"split_indices":[0,0,0,0,1,0,0],"split_type":[0,0,0,0,0,0,0],"sum_hessian":[1.2457339E1,4.4417863E0,8.0155525E0,1.2044612E0,3.2373252E0,1.9478335E0,1.2894917E0],"tree_param":{"num_deleted":"0","num_feature":"3","num_nodes":"7","size_leaf_vector":"1"}},{"base_weights":[-2.3605376E-1,3.471295E-1,-1.4304608E-1,1.2092847E-2,1.3626459E-1],"categories":[],"categories_nodes":[],"categories_segments":[],"categories_sizes":[],"default_left":[0,0,0,0,0],"id":31,"left_children":[1,3,-1,-1,-1],"loss_changes":[1.9312923E0,1.21442795E-1,0E0,0E0,0E0],"parents":[2147483647,0,0,1,1],"right_children":[2,4,-1,-1,-1],"split_conditions":[-1.1857142E0,-1.4084507E0,-1.4304608E-1,1.2092847E-2,1.3626459E-1],"split_indices":[0,1,0,0,0],"split_type":[0,0,0,0,0],"sum_hessian":[1.1575751E1,3.253463E0,8.3222885E0,1.1978449E0,2.055618E0],"tree_param":{"num_deleted":"0","num_feature":"3","num_nodes":"5","size_leaf_vector":"1"}},{"base_weights":[-1.7809136E-2,1.8090157E-1,-1.3266836E-1,-1.6026151E-1,3.9652193E-1,-1.2261716E-1,1.3217519E-1,1.6694002E-1,1.811262E-1,-8.9991555E-2,1.4678016E-1,-1.1983309E-1,1.5560237E-1],"categories":[],"categories_nodes":[],"categories_segments":[],"categories_sizes":[],"default_left":[0,0,0,0,0,0,0,0,0,0,0,0,0],"id":32,"left_children":[1,3,-1,5,7,-1,9,-1,11,-1,-1,-1,-1],"loss_changes":[1.5552735E0,9.921986E-1,0E0,4.6098828E-1,1.7561746E-1,0E0,6.604013E-1,0E0,1.1677259E0,0E0,0E0,0E0,0E0],"parents":[2147483647,0,0,1,1,3,3,4,4,6,6,8,8],"right_children":[2,4,-1,6,8,-1,10,-1,12,-1,-1,-1,-1],"split_conditions":[-1.14285715E-1,-5.714286E-1,-1.3266836E-1,2.631579E-1,-4.2857143E-1,-1.2261716E-1,-7.605634E-1,1.6694002E-1,-2.4285714E-1,-8.9991555E-2,1.4678016E-1,-1.1983309E-1,1.5560237E-1],"split_indices":[0,0,0,2,0,0,1,0,0,0,0,0,0],"split_type":[0,0,0,0,0,0,0,0,0,0,0,0,0],"sum_hessian":[1.64927E1,1.1624114E1,4.868586E0,4.600989E0,7.0231256E0,2.272533E0,2.328456E0,3.1216462E0,3.9014792E0,1.125886E0,1.20257E0,1.3669728E0,2.5345066E0],"tree_param":{"num_deleted":"0","num_feature":"3","num_nodes":"13","size_leaf_vector":"1"}},{"base_weights":[9.860018E-2,2.663673E-1,-1.2991454E-1,-1.0165754E-1,3.5383472E-1,3.9392644E-1,1.3715724E-2,1.7810509E-1,6.9339454E-2],"categories":[],"categories_nodes":[],"categories_segments":[],"categories_sizes":[],"default_left":[0,0,0,0,0,0,0,0,0],"id":33,"left_children":[1,3,-1,-1,5,7,-1,-1,-1],"loss_changes":[1.9836028E0,9.9554014E-1,0E0,0E0,1.6656089E-1,2.8845763E-1,0E0,0E0,0E0],"parents":[2147483647,0,0,1,1,4,4,5,5],"right_children":[2,4,-1,-1,6,8,-1,-1,-1],"split_conditions":[0E0,-1E0,-1.2991454E-1,-1.0165754E-1,1.4084508E-1,1.5789473E-1,1.3715724E-2,1.7810509E-1,6.9339454E-2],"split_indices":[0,0,0,0,1,2,0,0,0],"split_type":[0,0,0,0,0,0,0,0,0],"sum_hessian":[1.9946148E1,1.5541004E1,4.405143E0,1.5994685E0,1.3941536E1,1.2089907E1,1.8516293E0,4.2401824E0,7.849725E0],"tree_param":{"num_deleted":"0","num_feature":"3","num_nodes":"9","size_leaf_vector":"1"}},{"base_weights":[-2.0218003E-1,-1.3599733E-1,1.8063534E-2,3.4826806E-1,-1.1918013E-1,2.7813254E-2,1.7283756E-1],"categories":[],"categories_nodes":[],"categories_segments":[],"categories_sizes":[],"default_left":[0,0,0,0,0,0,0],"id":34,"left_children":[1,-1,3,5,-1,-1,-1],"loss_changes":[7.443836E-1,0E0,1.2427408E0,2.3884404E-1,0E0,0E0,0E0],"parents":[2147483647,0,0,2,2,3,3],"right_children":[2,-1,4,6,-1,-1,-1],"split_conditions":[0E0,-1.3599733E-1,3.2857144E-1,3.6842105E-1,-1.1918013E-1,2.7813254E-2,1.7283756E-1],"split_indices":[0,0,0,2,0,0,0],"split_type":[0,0,0,0,0,0,0],"sum_hessian":[1.2309634E1,5.2568946E0,7.0527396E0,4.018967E0,3.0337727E0,2.5574708E0,1.4614961E0],"tree_param":{"num_deleted":"0","num_feature":"3","num_nodes":"7","size_leaf_vector":"1"}},{"base_weights":[2.7369905E-1,-1.3649449E-1,5.284706E-1,2.4670395E-1,1.8515727E-1,1.3207807E-1,-7.139359E-3],"categories":[],"categories_nodes":[],"categories_segments":[],"categories_sizes":[],"default_left":[0,0,0,0,0,0,0],"id":35,"left_children":[1,-1,3,5,-1,-1,-1],"loss_changes":[4.430402E0,0E0,2.7734137E-1,3.131677E-1,0E0,0E0,0E0],"parents":[2147483647,0,0,2,2,3,3],"right_children":[2,-1,4,6,-1,-1,-1],"split_conditions":[1.4285714E-2,-1.3649449E-1,3.2857144E-1,1.7142858E-1,1.8515727E-1,1.3207807E-1,-7.139359E-3],"split_indices":[0,0,0,0,0,0,0],"split_type":[0,0,0,0,0,0,0],"sum_hessian":[2.156947E1,5.3841734E0,1.6185297E1,4.7812443E0,1.1404053E1,2.4211988E0,2.3600454E0],"tree_param":{"num_deleted":"0","num_feature":"3","num_nodes":"7","size_leaf_vector":"1"}},{"base_weights":[-1.4793667E-1,3.204444E-1,-1.3761963E-1,3.325036E-2,1.2617116E-1],"categories":[],"categories_nodes":[],"categories_segments":[],"categories_sizes":[],"default_left":[0,0,0,0,0],"id":36,"left_children":[1,3,-1,-1,-1],"loss_changes":[1.8982911E0,6.645477E-2,0E0,0E0,0E0],"parents":[2147483647,0,0,1,1],"right_children":[2,4,-1,-1,-1],"split_conditions":[-1E0,-5.263158E-2,-1.3761963E-1,3.325036E-2,1.2617116E-1],"split_indices":[0,2,0,0,0],"split_type":[0,0,0,0,0],"sum_hessian":[1.1030533E1,4.3874397E0,6.643093E0,2.0993943E0,2.2880454E0],"tree_param":{"num_deleted":"0","num_feature":"3","num_nodes":"5","size_leaf_vector":"1"}},{"base_weights":[-2.0906678E-1,3.0273467E-1,-1.3850869E-1,1.2698077E-1,8.786797E-3],"categories":[],"categories_nodes":[],"categories_segments":[],"categories_sizes":[],"default_left":[0,0,0,0,0],"id":37,"left_children":[1,3,-1,-1,-1],"loss_changes":[1.591234E0,1.2978745E-1,0E0,0E0,0E0],"parents":[2147483647,0,0,1,1],"right_children":[2,4,-1,-1,-1],"split_conditions":[-1.1857142E0,-5.263158E-2,-1.3850869E-1,1.2698077E-1,8.786797E-3],"split_indices":[0,2,0,0,0],"split_type":[0,0,0,0,0],"sum_hessian":[1.0225906E1,3.3139098E0,6.9119964E0,1.9197667E0,1.3941431E0],"tree_param":{"num_deleted":"0","num_feature":"3","num_nodes":"5","size_leaf_vector":"1"}},{"base_weights":[-3.9576003E-3,1.6685513E-1,-1.2677781E-1,-1.0251396E-1,2.771625E-1,4.0454555E-1,1.3811118E-2,2.6731271E-2,2.014598E-1,-1.0828934E-1,7.766725E-2],"categories":[],"categories_nodes":[],"categories_segments":[],"categories_sizes":[],"default_left":[0,0,0,0,0,0,0,0,0,0,0],"id":38,"left_children":[1,3,-1,-1,5,7,9,-1,-1,-1,-1],"loss_changes":[1.2407668E0,7.869606E-1,0E0,0E0,3.5311073E-1,5.4412484E-1,5.08724E-1,0E0,0E0,0E0,0E0],"parents":[2147483647,0,0,1,1,4,4,5,5,6,6],"right_children":[2,4,-1,-1,6,8,10,-1,-1,-1,-1],"split_conditions":[-1.14285715E-1,-9.285714E-1,-1.2677781E-1,-1.0251396E-1,5.263158E-1,1.5789473E-1,-4.6478873E-1,2.6731271E-2,2.014598E-1,-1.0828934E-1,7.766725E-2],"split_indices":[0,0,0,0,2,2,1,0,0,0,0],"split_type":[0,0,0,0,0,0,0,0,0,0,0],"sum_hessian":[1.5365325E1,1.133984E1,4.0254846E0,1.6472808E0,9.692559E0,6.171339E0,3.5212202E0,3.4403527E0,2.7309864E0,1.2052732E0,2.315947E0],"tree_param":{"num_deleted":"0","num_feature":"3","num_nodes":"11","size_leaf_vector":"1"}},{"base_weights":[8.368562E-2,2.2000824E-1,-1.2343178E-1,-9.638327E-2,2.946738E-1,3.3130744E-1,6.713479E-3,1.5216333E-1,5.7796102E-2],"categories":[],"categories_nodes":[],"categories_segments":[],"categories_sizes":[],"default_left":[0,0,0,0,0,0,0,0,0],"id":39,"left_children":[1,3,-1,-1,5,7,-1,-1,-1],"loss_changes":[1.4214085E0,7.4586713E-1,0E0,0E0,1.3903129E-1,2.1612155E-1,0E0,0E0,0E0],"parents":[2147483647,0,0,1,1,4,4,5,5],"right_children":[2,4,-1,-1,6,8,-1,-1,-1],"split_conditions":[0E0,-1E0,-1.2343178E-1,-9.638327E-2,1.4084508E-1,1.5789473E-1,6.713479E-3,1.5216333E-1,5.7796102E-2],"split_indices":[0,0,0,0,1,2,0,0,0],"split_type":[0,0,0,0,0,0,0,0,0],"sum_hessian":[1.8717825E1,1.5112544E1,3.605282E0,1.4315653E0,1.3680979E1,1.1867632E1,1.8133467E0,4.0594635E0,7.8081684E0],"tree_param":{"num_deleted":"0","num_feature":"3","num_nodes":"9","size_leaf_vector":"1"}},{"base_weights":[-1.8026623E-1,-1.3113984E-1,3.4071196E-2,3.036878E-1,-1.11009605E-1,2.2324735E-2,1.561273E-1],"categories":[],"categories_nodes":[],"categories_segments":[],"categories_sizes":[],"default_left":[0,0,0,0,0,0,0],"id":40,"left_children":[1,-1,3,5,-1,-1,-1],"loss_changes":[6.738764E-1,0E0,9.243451E-1,2.1068978E-1,0E0,0E0,0E0],"parents":[2147483647,0,0,2,2,3,3],"right_children":[2,-1,4,6,-1,-1,-1],"split_conditions":[0E0,-1.3113984E-1,3.2857144E-1,3.6842105E-1,-1.11009605E-1,2.2324735E-2,1.561273E-1],"split_indices":[0,0,0,2,0,0,0],"split_type":[0,0,0,0,0,0,0],"sum_hessian":[1.0969294E1,4.516802E0,6.4524918E0,4.019309E0,2.433183E0,2.605966E0,1.4133427E0],"tree_param":{"num_deleted":"0","num_feature":"3","num_nodes":"7","size_leaf_vector":"1"}},{"base_weights":[2.3585178E-1,-1.3163671E-1,4.6815494E-1,2.0616639E-1,1.6967563E-1,1.1423592E-1,-9.352503E-3],"categories":[],"categories_nodes":[],"categories_segments":[],"categories_sizes":[],"default_left":[0,0,0,0,0,0,0],"id":41,"left_children":[1,-1,3,5,-1,-1,-1],"loss_changes":[3.3278928E0,0E0,2.7404833E-1,2.4902791E-1,0E0,0E0,0E0],"parents":[2147483647,0,0,2,2,3,3],"right_children":[2,-1,4,6,-1,-1,-1],"split_conditions":[1.4285714E-2,-1.3163671E-1,3.2857144E-1,1.7142858E-1,1.6967563E-1,1.1423592E-1,-9.352503E-3],"split_indices":[0,0,0,0,0,0,0],"split_type":[0,0,0,0,0,0,0],"sum_hessian":[1.8923738E1,4.6194234E0,1.4304315E1,4.7222686E0,9.582046E0,2.3724186E0,2.3498502E0],"tree_param":{"num_deleted":"0","num_feature":"3","num_nodes":"7","size_leaf_vector":"1"}},{"base_weights":[-1.3006482E-1,2.7665123E-1,-1.3295029E-1,3.583331E-1,1.9258752E-2,2.3213327E-4,1.6388768E-1],"categories":[],"categories_nodes":[],"categories_segments":[],"categories_sizes":[],"default_left":[0,0,0,0,0,0,0],"id":42,"left_children":[1,3,-1,5,-1,-1,-1],"loss_changes":[1.5064187E0,6.970769E-2,0E0,2.4424848E-1,0E0,0E0,0E0],"parents":[2147483647,0,0,1,1,3,3],"right_children":[2,4,-1,6,-1,-1,-1],"split_conditions":[-1E0,-1.3857143E0,-1.3295029E-1,-5.263158E-2,1.9258752E-2,2.3213327E-4,1.6388768E-1],"split_indices":[0,0,0,2,0,0,0],"split_type":[0,0,0,0,0,0,0],"sum_hessian":[9.866759E0,4.342428E0,5.524331E0,2.6405854E0,1.701843E0,1.255787E0,1.3847983E0],"tree_param":{"num_deleted":"0","num_feature":"3","num_nodes":"7","size_leaf_vector":"1"}},{"base_weights":[-1.836817E-1,2.7148318E-1,-1.3397911E-1,1.88982E-2,1.3216572E-1],"categories":[],"categories_nodes":[],"categories_segments":[],"categories_sizes":[],"default_left":[0,0,0,0,0],"id":43,"left_children":[1,3,-1,-1,-1],"loss_changes":[1.3261248E0,1.24112666E-1,0E0,0E0,0E0],"parents":[2147483647,0,0,1,1],"right_children":[2,4,-1,-1,-1],"split_conditions":[-1.1857142E0,-1.4285715E0,-1.3397911E-1,1.88982E-2,1.3216572E-1],"split_indices":[0,0,0,0,0],"split_type":[0,0,0,0,0],"sum_hessian":[9.068379E0,3.3083324E0,5.7600465E0,2.0961006E0,1.212232E0],"tree_param":{"num_deleted":"0","num_feature":"3","num_nodes":"5","size_leaf_vector":"1"}},{"base_weights":[7.6401336E-3,1.5439735E-1,-1.2084586E-1,-1.4390682E-1,3.2609332E-1,-1.1373971E-1,3.503724E-2,1.6731049E-1,1.7624643E-1,1.3632657E-1,-7.652961E-2],"categories":[],"categories_nodes":[],"categories_segments":[],"categories_sizes":[],"default_left":[0,0,0,0,0,0,0,0,0,0,0],"id":44,"left_children":[1,3,-1,5,7,-1,-1,9,-1,-1,-1],"loss_changes":[9.915375E-1,6.6601837E-1,0E0,3.5760722E-1,2.3283285E-1,0E0,0E0,8.8741493E-1,0E0,0E0,0E0],"parents":[2147483647,0,0,1,1,3,3,4,4,7,7],"right_children":[2,4,-1,6,8,-1,-1,10,-1,-1,-1],"split_conditions":[-1.14285715E-1,-5.714286E-1,-1.2084586E-1,2.631579E-1,-4.225352E-2,-1.1373971E-1,3.503724E-2,-4.2857143E-1,1.7624643E-1,1.3632657E-1,-7.652961E-2],"split_indices":[0,0,0,2,1,0,0,0,0,0,0],"split_type":[0,0,0,0,0,0,0,0,0,0,0],"sum_hessian":[1.4427878E1,1.1087467E1,3.3404105E0,4.1094937E0,6.977974E0,1.921468E0,2.1880255E0,5.3613315E0,1.6166427E0,3.1467204E0,2.214611E0],"tree_param":{"num_deleted":"0","num_feature":"3","num_nodes":"11","size_leaf_vector":"1"}},{"base_weights":[7.098579E-2,1.8318942E-1,-1.1685545E-1,-9.118052E-2,2.4793456E-1,3.8356906E-1,1.4787838E-1,6.0939994E-3,1.680723E-1,-5.310036E-2,9.577171E-2],"categories":[],"categories_nodes":[],"categories_segments":[],"categories_sizes":[],"default_left":[0,0,0,0,0,0,0,0,0,0,0],"id":45,"left_children":[1,3,-1,-1,5,7,9,-1,-1,-1,-1],"loss_changes":[1.0311729E0,5.678879E-1,0E0,0E0,1.378228E-1,3.3891177E-1,6.063746E-1,0E0,0E0,0E0,0E0],"parents":[2147483647,0,0,1,1,4,4,5,5,6,6],"right_children":[2,4,-1,-1,6,8,10,-1,-1,-1,-1],"split_conditions":[0E0,-1E0,-1.1685545E-1,-9.118052E-2,-5.714286E-1,-7.1428573E-1,-4.2857143E-1,6.0939994E-3,1.680723E-1,-5.310036E-2,9.577171E-2],"split_indices":[0,0,0,0,0,0,0,0,0,0,0],"split_type":[0,0,0,0,0,0,0,0,0,0,0],"sum_hessian":[1.7575829E1,1.4616627E1,2.9592023E0,1.2813997E0,1.3335227E1,4.458213E0,8.877014E0,1.8236263E0,2.6345863E0,3.054026E0,5.8229885E0],"tree_param":{"num_deleted":"0","num_feature":"3","num_nodes":"11","size_leaf_vector":"1"}},{"base_weights":[-1.6040179E-1,-1.2633982E-1,4.6632253E-2,2.7759352E-1,-1.1727197E-1,8.06675E-2,1.43824E-1,-9.067225E-2,1.066748E-1],"categories":[],"categories_nodes":[],"categories_segments":[],"categories_sizes":[],"default_left":[0,0,0,0,0,0,0,0,0],"id":46,"left_children":[1,-1,3,5,-1,7,-1,-1,-1],"loss_changes":[6.042806E-1,0E0,8.095589E-1,1.6502357E-1,0E0,5.071074E-1,0E0,0E0,0E0],"parents":[2147483647,0,0,2,2,3,3,5,5],"right_children":[2,-1,4,6,-1,8,-1,-1,-1],"split_conditions":[0E0,-1.2633982E-1,5.492958E-1,3.0985916E-1,-1.1727197E-1,3.6842105E-1,1.43824E-1,-9.067225E-2,1.066748E-1],"split_indices":[0,0,1,1,0,2,0,0,0],"split_type":[0,0,0,0,0,0,0,0,0],"sum_hessian":[9.830686E0,3.8933828E0,5.937303E0,4.125273E0,1.8120295E0,2.7963905E0,1.3288828E0,1.1271176E0,1.6692729E0],"tree_param":{"num_deleted":"0","num_feature":"3","num_nodes":"9","size_leaf_vector":"1"}},{"base_weights":[2.0344742E-1,-3.599533E-1,4.4956765E-1,-1.2507187E-1,-2.0076573E-2,2.0995851E-1,1.5783565E-1,1.3971403E-1,-1.0838889E-2],"categories":[],"categories_nodes":[],"categories_segments":[],"categories_sizes":[],"default_left":[0,0,0,0,0,0,0,0,0],"id":47,"left_children":[1,3,5,-1,-1,7,-1,-1,-1],"loss_changes":[2.5906293E0,7.024264E-2,1.21293545E-1,0E0,0E0,3.1410745E-1,0E0,0E0,0E0],"parents":[2147483647,0,0,1,1,2,2,5,5],"right_children":[2,4,6,-1,-1,8,-1,-1,-1],"split_conditions":[4.2857144E-2,-4.2857144E-2,3.2857144E-1,-1.2507187E-1,-2.0076573E-2,1.7142858E-1,1.5783565E-1,1.3971403E-1,-1.0838889E-2],"split_indices":[0,0,0,0,0,0,0,0,0],"split_type":[0,0,0,0,0,0,0,0,0],"sum_hessian":[1.6515726E1,4.8806906E0,1.16350355E1,3.7325127E0,1.1481777E0,3.7233815E0,7.911654E0,1.3881924E0,2.335189E0],"tree_param":{"num_deleted":"0","num_feature":"3","num_nodes":"9","size_leaf_vector":"1"}},{"base_weights":[-1.11152105E-1,2.4511114E-1,-1.281103E-1,5.239304E-3,3.1185544E-1,1.5033886E-1,-1.3443715E-2],"categories":[],"categories_nodes":[],"categories_segments":[],"categories_sizes":[],"default_left":[0,0,0,0,0,0,0],"id":48,"left_children":[1,3,-1,-1,5,-1,-1],"loss_changes":[1.2178699E0,7.484099E-2,0E0,0E0,2.942958E-1,0E0,0E0],"parents":[2147483647,0,0,1,1,4,4],"right_children":[2,4,-1,-1,6,-1,-1],"split_conditions":[-1E0,-1.5857143E0,-1.281103E-1,5.239304E-3,-9.2957747E-1,1.5033886E-1,-1.3443715E-2],"split_indices":[0,0,0,0,1,0,0],"split_type":[0,0,0,0,0,0,0],"sum_hessian":[8.891829E0,4.284105E0,4.6077237E0,1.2573351E0,3.0267699E0,1.712801E0,1.3139689E0],"tree_param":{"num_deleted":"0","num_feature":"3","num_nodes":"7","size_leaf_vector":"1"}},{"base_weights":[-1.5845269E-1,2.4704798E-1,-1.2932931E-1,1.6316783E-2,1.2067847E-1],"categories":[],"categories_nodes":[],"categories_segments":[],"categories_sizes":[],"default_left":[0,0,0,0,0],"id":49,"left_children":[1,3,-1,-1,-1],"loss_changes":[1.1153202E0,1.0683343E-1,0E0,0E0,0E0],"parents":[2147483647,0,0,1,1],"right_children":[2,4,-1,-1,-1],"split_conditions":[-1.1857142E0,-1.4285715E0,-1.2932931E-1,1.6316783E-2,1.2067847E-1],"split_indices":[0,0,0,0,0],"split_type":[0,0,0,0,0],"sum_hessian":[8.124812E0,3.304285E0,4.820527E0,2.0768335E0,1.2274516E0],"tree_param":{"num_deleted":"0","num_feature":"3","num_nodes":"5","size_leaf_vector":"1"}},{"base_weights":[1.4371152E-2,1.39879E-1,-1.14669256E-1,-9.3847744E-2,2.2933185E-1,3.5940257E-1,-2.8026111E-2,3.3560548E-2,1.9156568E-1,-1.0746019E-1,5.8198143E-2],"categories":[],"categories_nodes":[],"categories_segments":[],"categories_sizes":[],"default_left":[0,0,0,0,0,0,0,0,0,0,0],"id":50,"left_children":[1,3,-1,-1,5,7,9,-1,-1,-1,-1],"loss_changes":[7.798807E-1,5.502993E-1,0E0,0E0,3.597057E-1,4.1298133E-1,3.9454177E-1,0E0,0E0,0E0,0E0],"parents":[2147483647,0,0,1,1,4,4,5,5,6,6],"right_children":[2,4,-1,-1,6,8,10,-1,-1,-1,-1],"split_conditions":[-1.14285715E-1,-9.285714E-1,-1.14669256E-1,-9.3847744E-2,5.263158E-1,-2.4285714E-1,-4.6478873E-1,3.3560548E-2,1.9156568E-1,-1.0746019E-1,5.8198143E-2],"split_indices":[0,0,0,0,2,0,1,0,0,0,0],"split_type":[0,0,0,0,0,0,0,0,0,0,0],"sum_hessian":[1.3593476E1,1.0817499E1,2.7759771E0,1.3728169E0,9.444682E0,6.010447E0,3.4342353E0,3.9280355E0,2.0824118E0,1.1341801E0,2.3000553E0],"tree_param":{"num_deleted":"0","num_feature":"3","num_nodes":"11","size_leaf_vector":"1"}},{"base_weights":[5.9003178E-2,1.426508E-1,-1.2594007E-1,1.9966091E-1,-8.6169966E-2,-1.441849E-1,2.9649106E-1,6.234886E-2,-1.2188339E-1,1.5410173E-1,4.7548246E-2],"categories":[],"categories_nodes":[],"categories_segments":[],"categories_sizes":[],"default_left":[0,0,0,0,0,0,0,0,0,0,0],"id":51,"left_children":[1,3,-1,5,-1,7,9,-1,-1,-1,-1],"loss_changes":[7.5821555E-1,4.394106E-1,0E0,5.206607E-1,0E0,4.375016E-1,2.640592E-1,0E0,0E0,0E0,0E0],"parents":[2147483647,0,0,1,1,3,3,5,5,6,6],"right_children":[2,4,-1,6,-1,8,10,-1,-1,-1,-1],"split_conditions":[4.225352E-1,0E0,-1.2594007E-1,-7.1428573E-1,-8.6169966E-2,-1.0985916E0,-2.1052632E-1,6.234886E-2,-1.2188339E-1,1.5410173E-1,4.7548246E-2],"split_indices":[1,0,0,0,0,1,2,0,0,0,0],"split_type":[0,0,0,0,0,0,0,0,0,0,0],"sum_hessian":[1.6436142E1,1.4589418E1,1.8467234E0,1.3353993E1,1.2354254E0,2.8268266E0,1.0527166E1,1.2948141E0,1.5320123E0,3.0323956E0,7.494771E0],"tree_param":{"num_deleted":"0","num_feature":"3","num_nodes":"11","size_leaf_vector":"1"}},{"base_weights":[-1.4352778E-1,-1.2143962E-1,5.158364E-2,2.6089695E-1,-1.11641474E-1,7.6636955E-2,1.2881017E-1,-8.439256E-2,9.6902005E-2],"categories":[],"categories_nodes":[],"categories_segments":[],"categories_sizes":[],"default_left":[0,0,0,0,0,0,0,0,0],"id":52,"left_children":[1,-1,3,5,-1,7,-1,-1,-1],"loss_changes":[5.275195E-1,0E0,6.8037593E-1,1.2199378E-1,0E0,4.083858E-1,0E0,0E0,0E0],"parents":[2147483647,0,0,2,2,3,3,5,5],"right_children":[2,-1,4,6,-1,8,-1,-1,-1],"split_conditions":[0E0,-1.2143962E-1,5.492958E-1,3.0985916E-1,-1.11641474E-1,3.6842105E-1,1.2881017E-1,-8.439256E-2,9.6902005E-2],"split_indices":[0,0,1,1,0,2,0,0,0],"split_type":[0,0,0,0,0,0,0,0,0],"sum_hessian":[8.938581E0,3.361944E0,5.5766373E0,3.9899333E0,1.5867043E0,2.600549E0,1.3893843E0,1.0023868E0,1.598162E0],"tree_param":{"num_deleted":"0","num_feature":"3","num_nodes":"9","size_leaf_vector":"1"}},{"base_weights":[1.7628084E-1,-3.4312057E-1,4.0859956E-1,-1.2490107E-1,-2.4834605E-2,3.2451097E-2,1.3986257E-1],"categories":[],"categories_nodes":[],"categories_segments":[],"categories_sizes":[],"default_left":[0,0,0,0,0,0,0],"id":53,"left_children":[1,3,5,-1,-1,-1,-1],"loss_changes":[2.0111785E0,6.72344E-2,1.4289188E-1,0E0,0E0,0E0,0E0],"parents":[2147483647,0,0,1,1,2,2],"right_children":[2,4,6,-1,-1,-1,-1],"split_conditions":[4.2857144E-2,-1.5492958E-1,2.4285714E-1,-1.2490107E-1,-2.4834605E-2,3.2451097E-2,1.3986257E-1],"split_indices":[0,1,0,0,0,0,0],"split_type":[0,0,0,0,0,0,0],"sum_hessian":[1.4505356E1,4.335475E0,1.0169881E1,2.9161408E0,1.4193342E0,2.0993729E0,8.070508E0],"tree_param":{"num_deleted":"0","num_feature":"3","num_nodes":"7","size_leaf_vector":"1"}},{"base_weights":[-9.586544E-2,2.1904397E-1,-1.2315924E-1,8.106E-2,1.060708E-1,-3.6501378E-2,6.374017E-2],"categories":[],"categories_nodes":[],"categories_segments":[],"categories_sizes":[],"default_left":[0,0,0,0,0,0,0],"id":54,"left_children":[1,3,-1,5,-1,-1,-1],"loss_changes":[9.843755E-1,6.718831E-2,0E0,1.2832305E-1,0E0,0E0,0E0],"parents":[2147483647,0,0,1,1,3,3],"right_children":[2,4,-1,6,-1,-1,-1],"split_conditions":[-1E0,-8.450704E-1,-1.2315924E-1,-1.4857143E0,1.060708E-1,-3.6501378E-2,6.374017E-2],"split_indices":[0,1,0,0,0,0,0],"split_type":[0,0,0,0,0,0,0],"sum_hessian":[8.026556E0,4.1636047E0,3.8629518E0,2.8464925E0,1.3171122E0,1.1485827E0,1.6979098E0],"tree_param":{"num_deleted":"0","num_feature":"3","num_nodes":"7","size_leaf_vector":"1"}},{"base_weights":[-1.339187E-1,2.286152E-1,-1.2455631E-1,9.846328E-2,3.8141755E-3],"categories":[],"categories_nodes":[],"categories_segments":[],"categories_sizes":[],"default_left":[0,0,0,0,0],"id":55,"left_children":[1,3,-1,-1,-1],"loss_changes":[9.451855E-1,8.802824E-2,0E0,0E0,0E0],"parents":[2147483647,0,0,1,1],"right_children":[2,4,-1,-1,-1],"split_conditions":[-1.1857142E0,-5.263158E-2,-1.2455631E-1,9.846328E-2,3.8141755E-3],"split_indices":[0,2,0,0,0],"split_type":[0,0,0,0,0],"sum_hessian":[7.338443E0,3.2878547E0,4.050588E0,1.8939717E0,1.3938829E0],"tree_param":{"num_deleted":"0","num_feature":"3","num_nodes":"5","size_leaf_vector":"1"}},{"base_weights":[1.777004E-2,1.2490045E-1,-1.0836923E-1,-8.9139685E-2,2.0411973E-1,3.2207012E-1,-3.087787E-2,1.947449E-2,1.5916975E-1,-1.0212507E-1,5.1621396E-2],"categories":[],"categories_nodes":[],"categories_segments":[],"categories_sizes":[],"default_left":[0,0,0,0,0,0,0,0,0,0,0],"id":56,"left_children":[1,3,-1,-1,5,7,9,-1,-1,-1,-1],"loss_changes":[6.092331E-1,4.4763547E-1,0E0,0E0,2.965037E-1,3.3930808E-1,3.329421E-1,0E0,0E0,0E0,0E0],"parents":[2147483647,0,0,1,1,4,4,5,5,6,6],"right_children":[2,4,-1,-1,6,8,10,-1,-1,-1,-1],"split_conditions":[-1.14285715E-1,-9.285714E-1,-1.0836923E-1,-8.9139685E-2,5.263158E-1,1.5789473E-1,-4.6478873E-1,1.947449E-2,1.5916975E-1,-1.0212507E-1,5.1621396E-2],"split_indices":[0,0,0,0,2,2,1,0,0,0,0],"split_type":[0,0,0,0,0,0,0,0,0,0,0],"sum_hessian":[1.2893602E1,1.0574893E1,2.3187084E0,1.2365484E0,9.338345E0,5.970897E0,3.3674479E0,3.260634E0,2.7102633E0,1.0652988E0,2.302149E0],"tree_param":{"num_deleted":"0","num_feature":"3","num_nodes":"11","size_leaf_vector":"1"}},{"base_weights":[4.972322E-2,1.2304761E-1,-1.16974495E-1,1.7322238E-1,-8.061995E-2,-1.4264117E-1,2.6230702E-1,5.4159608E-2,-1.1561931E-1,1.4260966E-1,4.0795658E-2],"categories":[],"categories_nodes":[],"categories_segments":[],"categories_sizes":[],"default_left":[0,0,0,0,0,0,0,0,0,0,0],"id":57,"left_children":[1,3,-1,5,-1,7,9,-1,-1,-1,-1],"loss_changes":[5.783482E-1,3.386801E-1,0E0,4.2521805E-1,0E0,3.5825247E-1,2.3416132E-1,0E0,0E0,0E0,0E0],"parents":[2147483647,0,0,1,1,3,3,5,5,6,6],"right_children":[2,4,-1,6,-1,8,10,-1,-1,-1,-1],"split_conditions":[4.225352E-1,0E0,-1.16974495E-1,-7.1428573E-1,-8.061995E-2,-1.0985916E0,-2.1052632E-1,5.4159608E-2,-1.1561931E-1,1.4260966E-1,4.0795658E-2],"split_indices":[1,0,0,0,0,1,2,0,0,0,0],"split_type":[0,0,0,0,0,0,0,0,0,0,0],"sum_hessian":[1.5452624E1,1.3860961E1,1.5916634E0,1.2781866E1,1.0790951E0,2.6796305E0,1.0102236E1,1.2593828E0,1.4202477E0,2.731704E0,7.3705316E0],"tree_param":{"num_deleted":"0","num_feature":"3","num_nodes":"11","size_leaf_vector":"1"}},{"base_weights":[-1.2444754E-1,-1.1652038E-1,6.104813E-2,2.4484855E-1,-1.0275904E-1,6.2382568E-2,1.2124848E-1,-2.8048681E-2,6.564559E-2],"categories":[],"categories_nodes":[],"categories_segments":[],"categories_sizes":[],"default_left":[0,0,0,0,0,0,0,0,0],"id":58,"left_children":[1,-1,3,5,-1,7,-1,-1,-1],"loss_changes":[4.7110045E-1,0E0,5.4602736E-1,1.161792E-1,0E0,1.04580864E-1,0E0,0E0,0E0],"parents":[2147483647,0,0,2,2,3,3,5,5],"right_children":[2,-1,4,6,-1,8,-1,-1,-1],"split_conditions":[0E0,-1.1652038E-1,5.492958E-1,3.0985916E-1,-1.0275904E-1,6.8421054E-1,1.2124848E-1,-2.8048681E-2,6.564559E-2],"split_indices":[0,0,1,1,0,2,0,0,0],"split_type":[0,0,0,0,0,0,0,0,0],"sum_hessian":[8.137429E0,2.9070065E0,5.2304225E0,3.8639717E0,1.366451E0,2.4497604E0,1.4142113E0,1.4285973E0,1.021163E0],"tree_param":{"num_deleted":"0","num_feature":"3","num_nodes":"9","size_leaf_vector":"1"}},{"base_weights":[1.4788486E-1,-1.18220516E-1,3.3738703E-1,1.10834666E-1,1.4140226E-1,8.526353E-2,-2.5347728E-2],"categories":[],"categories_nodes":[],"categories_segments":[],"categories_sizes":[],"default_left":[0,0,0,0,0,0,0],"id":59,"left_children":[1,-1,3,5,-1,-1,-1],"loss_changes":[1.5595101E0,0E0,2.7643645E-1,2.0457388E-1,0E0,0E0,0E0],"parents":[2147483647,0,0,2,2,3,3],"right_children":[2,-1,4,6,-1,-1,-1],"split_conditions":[1.4285714E-2,-1.18220516E-1,3.2857144E-1,1.7142858E-1,1.4140226E-1,8.526353E-2,-2.5347728E-2],"split_indices":[0,0,0,0,0,0,0],"split_type":[0,0,0,0,0,0,0],"sum_hessian":[1.2890345E1,3.0599024E0,9.830442E0,4.3317246E0,5.4987173E0,2.053729E0,2.2779956E0],"tree_param":{"num_deleted":"0","num_feature":"3","num_nodes":"7","size_leaf_vector":"1"}},{"base_weights":[-8.114482E-2,1.9589654E-1,-1.1807228E-1,2.9283708E-1,-3.8526028E-3,-2.63148E-3,1.3747416E-1],"categories":[],"categories_nodes":[],"categories_segments":[],"categories_sizes":[],"default_left":[0,0,0,0,0,0,0],"id":60,"left_children":[1,3,-1,5,-1,-1,-1],"loss_changes":[7.994696E-1,1.0677898E-1,0E0,1.7955536E-1,0E0,0E0,0E0],"parents":[2147483647,0,0,1,1,3,3],"right_children":[2,4,-1,6,-1,-1,-1],"split_conditions":[-1E0,-1.3857143E0,-1.1807228E-1,-5.263158E-2,-3.8526028E-3,-2.63148E-3,1.3747416E-1],"split_indices":[0,0,0,2,0,0,0],"split_type":[0,0,0,0,0,0,0],"sum_hessian":[7.3457046E0,4.0910378E0,3.254667E0,2.5185192E0,1.5725186E0,1.2274173E0,1.2911018E0],"tree_param":{"num_deleted":"0","num_feature":"3","num_nodes":"7","size_leaf_vector":"1"}},{"base_weights":[-1.1385564E-1,2.0774594E-1,-1.1957702E-1,8.774791E-3,1.0777166E-1],"categories":[],"categories_nodes":[],"categories_segments":[],"categories_sizes":[],"default_left":[0,0,0,0,0],"id":61,"left_children":[1,3,-1,-1,-1],"loss_changes":[7.859763E-1,1.04779124E-1,0E0,0E0,0E0],"parents":[2147483647,0,0,1,1],"right_children":[2,4,-1,-1,-1],"split_conditions":[-1.1857142E0,-1.4285715E0,-1.1957702E-1,8.774791E-3,1.0777166E-1],"split_indices":[0,0,0,0,0],"split_type":[0,0,0,0,0],"sum_hessian":[6.6789646E0,3.2634046E0,3.4155602E0,2.0458977E0,1.2175069E0],"tree_param":{"num_deleted":"0","num_feature":"3","num_nodes":"5","size_leaf_vector":"1"}},{"base_weights":[1.869038E-2,1.1109113E-1,-1.0208775E-1,-8.854319E-2,1.862435E-1,8.5810184E-2,1.2590477E-1,-1.179697E-1,8.431698E-2],"categories":[],"categories_nodes":[],"categories_segments":[],"categories_sizes":[],"default_left":[0,0,0,0,0,0,0,0,0],"id":62,"left_children":[1,3,-1,-1,5,7,-1,-1,-1],"loss_changes":[4.7596562E-1,3.987102E-1,0E0,0E0,2.011258E-1,8.895476E-1,0E0,0E0,0E0],"parents":[2147483647,0,0,1,1,4,4,5,5],"right_children":[2,4,-1,-1,6,8,-1,-1,-1],"split_conditions":[-1.14285715E-1,-8.450704E-1,-1.0208775E-1,-8.854319E-2,-4.225352E-2,1.5789473E-1,1.2590477E-1,-1.179697E-1,8.431698E-2],"split_indices":[0,1,0,0,1,2,0,0,0],"split_type":[0,0,0,0,0,0,0,0,0],"sum_hessian":[1.2209478E1,1.0259312E1,1.9501666E0,1.1446499E0,9.114662E0,7.3290496E0,1.7856123E0,1.8285704E0,5.500479E0],"tree_param":{"num_deleted":"0","num_feature":"3","num_nodes":"9","size_leaf_vector":"1"}},{"base_weights":[4.1134495E-2,1.0840947E-1,-1.11320965E-1,-1.2493901E-1,1.6984953E-1,4.8820935E-2,-1.0571506E-1,1.336829E-1,6.398919E-2,1.143705E-1,-2.2316024E-2],"categories":[],"categories_nodes":[],"categories_segments":[],"categories_sizes":[],"default_left":[0,0,0,0,0,0,0,0,0,0,0],"id":63,"left_children":[1,3,-1,5,7,-1,-1,-1,9,-1,-1],"loss_changes":[4.6984753E-1,2.2326536E-1,0E0,2.8722548E-1,3.0950704E-1,0E0,0E0,0E0,4.4693127E-1,0E0,0E0],"parents":[2147483647,0,0,1,1,3,3,4,4,8,8],"right_children":[2,4,-1,6,8,-1,-1,-1,10,-1,-1],"split_conditions":[4.225352E-1,-7.1428573E-1,-1.11320965E-1,-1.0985916E0,-5.714286E-1,4.8820935E-2,-1.0571506E-1,1.336829E-1,-4.2105263E-1,1.143705E-1,-2.2316024E-2],"split_indices":[1,0,0,1,0,0,0,0,2,0,0],"split_type":[0,0,0,0,0,0,0,0,0,0,0],"sum_hessian":[1.4492389E1,1.3092578E1,1.3998103E0,2.5133603E0,1.0579218E1,1.235359E0,1.2780013E0,2.0443614E0,8.534857E0,2.0590758E0,6.4757805E0],"tree_param":{"num_deleted":"0","num_feature":"3","num_nodes":"11","size_leaf_vector":"1"}},{"base_weights":[-1.0690536E-1,-1.11498885E-1,6.657353E-2,2.3596086E-1,-9.800363E-2,6.909582E-2,1.0996765E-1,5.000319E-2,-1.5772995E-2],"categories":[],"categories_nodes":[],"categories_segments":[],"categories_sizes":[],"default_left":[0,0,0,0,0,0,0,0,0],"id":64,"left_children":[1,-1,3,5,-1,7,-1,-1,-1],"loss_changes":[4.155485E-1,0E0,4.7599512E-1,7.8540504E-2,0E0,4.8239492E-2,0E0,0E0,0E0],"parents":[2147483647,0,0,2,2,3,3,5,5],"right_children":[2,-1,4,6,-1,8,-1,-1,-1],"split_conditions":[0E0,-1.11498885E-1,5.492958E-1,3.0985916E-1,-9.800363E-2,8.571429E-2,1.0996765E-1,5.000319E-2,-1.5772995E-2],"split_indices":[0,0,1,1,0,0,0,0,0],"split_type":[0,0,0,0,0,0,0,0,0],"sum_hessian":[7.508749E0,2.5201588E0,4.9885902E0,3.7662935E0,1.2222968E0,2.3248744E0,1.4414194E0,1.084899E0,1.2399755E0],"tree_param":{"num_deleted":"0","num_feature":"3","num_nodes":"9","size_leaf_vector":"1"}},{"base_weights":[1.2682512E-1,-3.1592906E-1,3.330636E-1,-1.15780964E-1,-2.0017985E-2,1.1065741E-1,1.3443768E-1,1.07621394E-1,-2.5729522E-2],"categories":[],"categories_nodes":[],"categories_segments":[],"categories_sizes":[],"default_left":[0,0,0,0,0,0,0,0,0],"id":65,"left_children":[1,3,5,-1,-1,7,-1,-1,-1],"loss_changes":[1.2406306E0,5.2137017E-2,1.799494E-1,0E0,0E0,2.444989E-1,0E0,0E0,0E0],"parents":[2147483647,0,0,1,1,2,2,5,5],"right_children":[2,4,6,-1,-1,8,-1,-1,-1],"split_conditions":[4.2857144E-2,-1.5492958E-1,3.2857144E-1,-1.15780964E-1,-2.0017985E-2,1.7142858E-1,1.3443768E-1,1.07621394E-1,-2.5729522E-2],"split_indices":[0,1,0,0,0,0,0,0,0],"split_type":[0,0,0,0,0,0,0,0,0],"sum_hessian":[1.1434231E1,3.464581E0,7.9696493E0,2.2763953E0,1.1881857E0,3.3861656E0,4.5834837E0,1.1311588E0,2.2550068E0],"tree_param":{"num_deleted":"0","num_feature":"3","num_nodes":"9","size_leaf_vector":"1"}},{"base_weights":[-6.6991925E-2,1.7909203E-1,-1.1286904E-1,2.7271262E-1,-6.1131115E-3,-2.7757103E-3,1.2938431E-1],"categories":[],"categories_nodes":[],"categories_segments":[],"categories_sizes":[],"default_left":[0,0,0,0,0,0,0],"id":66,"left_children":[1,3,-1,5,-1,-1,-1],"loss_changes":[6.574486E-1,9.884356E-2,0E0,1.5910408E-1,0E0,0E0,0E0],"parents":[2147483647,0,0,1,1,3,3],"right_children":[2,4,-1,6,-1,-1,-1],"split_conditions":[-1E0,-1.3857143E0,-1.1286904E-1,-5.263158E-2,-6.1131115E-3,-2.7757103E-3,1.2938431E-1],"split_indices":[0,0,0,2,0,0,0],"split_type":[0,0,0,0,0,0,0],"sum_hessian":[6.754007E0,3.9954162E0,2.7585907E0,2.4692729E0,1.5261433E0,1.2277493E0,1.2415234E0],"tree_param":{"num_deleted":"0","num_feature":"3","num_nodes":"7","size_leaf_vector":"1"}},{"base_weights":[-9.332899E-2,1.9586398E-1,-1.14599116E-1,9.826822E-3,9.8872356E-2],"categories":[],"categories_nodes":[],"categories_segments":[],"categories_sizes":[],"default_left":[0,0,0,0,0],"id":67,"left_children":[1,3,-1,-1,-1],"loss_changes":[6.6979355E-1,8.126901E-2,0E0,0E0,0E0],"parents":[2147483647,0,0,1,1],"right_children":[2,4,-1,-1,-1],"split_conditions":[-1.1857142E0,-1.4285715E0,-1.14599116E-1,9.826822E-3,9.8872356E-2],"split_indices":[0,0,0,0,0],"split_type":[0,0,0,0,0],"sum_hessian":[6.127079E0,3.2213562E0,2.9057229E0,2.0119903E0,1.2093658E0],"tree_param":{"num_deleted":"0","num_feature":"3","num_nodes":"5","size_leaf_vector":"1"}},{"base_weights":[9.595787E-3,8.970187E-2,-9.608165E-2,-5.2327953E-2,2.865287E-1,7.7750005E-2,-1.1382661E-1,-2.2449207E-2,1.5311913E-1,5.6896526E-2,-5.3052936E-2],"categories":[],"categories_nodes":[],"categories_segments":[],"categories_sizes":[],"default_left":[0,0,0,0,0,0,0,0,0,0,0],"id":68,"left_children":[1,3,-1,5,7,9,-1,-1,-1,-1,-1],"loss_changes":[3.5891488E-1,3.1789315E-1,0E0,3.332583E-1,4.1807854E-1,2.0271035E-1,0E0,0E0,0E0,0E0,0E0],"parents":[2147483647,0,0,1,1,3,3,4,4,5,5],"right_children":[2,4,-1,6,8,10,-1,-1,-1,-1,-1],"split_conditions":[-1.14285715E-1,-3.0985916E-1,-9.608165E-2,6.315789E-1,-2.4285714E-1,-4.225352E-1,-1.1382661E-1,-2.2449207E-2,1.5311913E-1,5.6896526E-2,-5.3052936E-2],"split_indices":[0,1,0,2,0,1,0,0,0,0,0],"split_type":[0,0,0,0,0,0,0,0,0,0,0],"sum_hessian":[1.1495479E1,9.83515E0,1.6603289E0,6.139234E0,3.695916E0,4.937859E0,1.2013749E0,1.6684722E0,2.0274436E0,3.6073384E0,1.3305209E0],"tree_param":{"num_deleted":"0","num_feature":"3","num_nodes":"11","size_leaf_vector":"1"}},{"base_weights":[3.9737344E-2,1.0131265E-1,-1.0341074E-1,4.1693952E-2,1.13855176E-1,8.367583E-2,-4.4860918E-2,5.024125E-2,-6.0432572E-2],"categories":[],"categories_nodes":[],"categories_segments":[],"categories_sizes":[],"default_left":[0,0,0,0,0,0,0,0,0],"id":69,"left_children":[1,3,-1,5,-1,-1,7,-1,-1],"loss_changes":[3.7873158E-1,2.0463344E-1,0E0,2.6033235E-1,0E0,0E0,3.5637662E-1,0E0,0E0],"parents":[2147483647,0,0,1,1,3,3,6,6],"right_children":[2,4,-1,6,-1,-1,8,-1,-1],"split_conditions":[4.225352E-1,7.894737E-1,-1.0341074E-1,-4.2105263E-1,1.13855176E-1,8.367583E-2,-5.714286E-1,5.024125E-2,-6.0432572E-2],"split_indices":[1,2,0,2,0,0,0,0,0],"split_type":[0,0,0,0,0,0,0,0,0],"sum_hessian":[1.3523862E1,1.2291596E1,1.2322652E0,1.1069328E1,1.2222677E0,2.3649979E0,8.704331E0,3.6649396E0,5.0393915E0],"tree_param":{"num_deleted":"0","num_feature":"3","num_nodes":"9","size_leaf_vector":"1"}},{"base_weights":[-9.510984E-2,-1.0656162E-1,6.555199E-2,2.2198698E-1,-9.36127E-2,6.525949E-2,1.0101241E-1,4.2355713E-2,-1.1158543E-2],"categories":[],"categories_nodes":[],"categories_segments":[],"categories_sizes":[],"default_left":[0,0,0,0,0,0,0,0,0],"id":70,"left_children":[1,-1,3,5,-1,7,-1,-1,-1],"loss_changes":[3.5606617E-1,0E0,4.0992224E-1,6.1849028E-2,0E0,3.0227356E-2,0E0,0E0,0E0],"parents":[2147483647,0,0,2,2,3,3,5,5],"right_children":[2,-1,4,6,-1,8,-1,-1,-1],"split_conditions":[0E0,-1.0656162E-1,5.492958E-1,3.0985916E-1,-9.36127E-2,8.571429E-2,1.0101241E-1,4.2355713E-2,-1.1158543E-2],"split_indices":[0,0,1,1,0,0,0,0,0],"split_type":[0,0,0,0,0,0,0,0,0],"sum_hessian":[6.963681E0,2.196644E0,4.7670374E0,3.6619964E0,1.1050407E0,2.2106898E0,1.4513067E0,1.0526036E0,1.1580862E0],"tree_param":{"num_deleted":"0","num_feature":"3","num_nodes":"9","size_leaf_vector":"1"}},{"base_weights":[1.1048707E-1,-1.0927836E-1,2.7762386E-1,7.9684906E-2,1.2802161E-1,7.147472E-2,-2.53158E-2],"categories":[],"categories_nodes":[],"categories_segments":[],"categories_sizes":[],"default_left":[0,0,0,0,0,0,0],"id":71,"left_children":[1,-1,3,5,-1,-1,-1],"loss_changes":[9.952413E-1,0E0,2.2873414E-1,1.5159616E-1,0E0,0E0,0E0],"parents":[2147483647,0,0,2,2,3,3],"right_children":[2,-1,4,6,-1,-1,-1],"split_conditions":[1.4285714E-2,-1.0927836E-1,3.2857144E-1,1.7142858E-1,1.2802161E-1,7.147472E-2,-2.53158E-2],"split_indices":[0,0,0,0,0,0,0],"split_type":[0,0,0,0,0,0,0],"sum_hessian":[1.0268272E1,2.3665946E0,7.9016776E0,4.0542917E0,3.8473864E0,1.8318316E0,2.22246E0],"tree_param":{"num_deleted":"0","num_feature":"3","num_nodes":"7","size_leaf_vector":"1"}},{"base_weights":[-5.021207E-2,1.7257412E-1,-1.0794221E-1,2.5739676E-1,-3.888111E-3,-5.962417E-3,1.258631E-1],"categories":[],"categories_nodes":[],"categories_segments":[],"categories_sizes":[],"default_left":[0,0,0,0,0,0,0],"id":72,"left_children":[1,3,-1,5,-1,-1,-1],"loss_changes":[5.6515515E-1,8.072135E-2,0E0,1.6220671E-1,0E0,0E0,0E0],"parents":[2147483647,0,0,1,1,3,3],"right_children":[2,4,-1,6,-1,-1,-1],"split_conditions":[-1E0,-1.3857143E0,-1.0794221E-1,-1.5857143E0,-3.888111E-3,-5.962417E-3,1.258631E-1],"split_indices":[0,0,0,0,0,0,0],"split_type":[0,0,0,0,0,0,0],"sum_hessian":[6.2935452E0,3.9172533E0,2.376292E0,2.422438E0,1.4948155E0,1.217662E0,1.2047758E0],"tree_param":{"num_deleted":"0","num_feature":"3","num_nodes":"7","size_leaf_vector":"1"}},{"base_weights":[-7.3314756E-2,1.8998154E-1,-1.0981575E-1,1.148122E-2,9.290876E-2],"categories":[],"categories_nodes":[],"categories_segments":[],"categories_sizes":[],"default_left":[0,0,0,0,0],"id":73,"left_children":[1,3,-1,-1,-1],"loss_changes":[5.848612E-1,6.403233E-2,0E0,0E0,0E0],"parents":[2147483647,0,0,1,1],"right_children":[2,4,-1,-1,-1],"split_conditions":[-1.1857142E0,-1.4285715E0,-1.0981575E-1,1.148122E-2,9.290876E-2],"split_indices":[0,0,0,0,0],"split_type":[0,0,0,0,0],"sum_hessian":[5.685778E0,3.178219E0,2.507559E0,1.9838377E0,1.1943812E0],"tree_param":{"num_deleted":"0","num_feature":"3","num_nodes":"5","size_leaf_vector":"1"}},{"base_weights":[7.961638E-4,7.042493E-2,-9.0424106E-2,-8.396424E-2,1.3824154E-1,2.3549981E-1,-4.982088E-2,-4.894192E-3,1.5068871E-1,2.9734336E-2,-6.239878E-2],"categories":[],"categories_nodes":[],"categories_segments":[],"categories_sizes":[],"default_left":[0,0,0,0,0,0,0,0,0,0,0],"id":74,"left_children":[1,3,-1,-1,5,7,9,-1,-1,-1,-1],"loss_changes":[2.7312925E-1,2.890867E-1,0E0,0E0,1.8549213E-1,4.406007E-1,1.1634639E-1,0E0,0E0,0E0,0E0],"parents":[2147483647,0,0,1,1,4,4,5,5,6,6],"right_children":[2,4,-1,-1,6,8,10,-1,-1,-1,-1],"split_conditions":[-1.14285715E-1,-8.450704E-1,-9.0424106E-2,-8.396424E-2,5.263158E-1,1.5789473E-1,-4.857143E-1,-4.894192E-3,1.5068871E-1,2.9734336E-2,-6.239878E-2],"split_indices":[0,1,0,0,2,2,0,0,0,0,0],"split_type":[0,0,0,0,0,0,0,0,0,0,0],"sum_hessian":[1.0971116E1,9.540065E0,1.431052E0,1.0401517E0,8.499912E0,5.436258E0,3.063655E0,3.27964E0,2.1566179E0,1.7702245E0,1.2934303E0],"tree_param":{"num_deleted":"0","num_feature":"3","num_nodes":"11","size_leaf_vector":"1"}},{"base_weights":[3.466753E-2,9.5881656E-2,-8.956568E-2,-1.49684E-1,1.7083207E-1,3.524983E-2,-1.02016605E-1,2.9373577E-1,8.857751E-3,3.2236062E-2,1.4252122E-1,-7.950852E-2,4.1029528E-2],"categories":[],"categories_nodes":[],"categories_segments":[],"categories_sizes":[],"default_left":[0,0,0,0,0,0,0,0,0,0,0,0,0],"id":75,"left_children":[1,3,-1,5,7,-1,-1,9,11,-1,-1,-1,-1],"loss_changes":[3.1155866E-1,2.5517672E-1,0E0,2.1544689E-1,1.9696507E-1,0E0,0E0,1.4044023E-1,2.238806E-1,0E0,0E0,0E0,0E0],"parents":[2147483647,0,0,1,1,3,3,4,4,7,7,8,8],"right_children":[2,4,-1,6,8,-1,-1,10,12,-1,-1,-1,-1],"split_conditions":[0E0,-7.1428573E-1,-8.956568E-2,-1.0985916E0,-3.0985916E-1,3.524983E-2,-1.02016605E-1,6.315789E-1,-1.8309858E-1,3.2236062E-2,1.4252122E-1,-7.950852E-2,4.1029528E-2],"split_indices":[0,0,0,1,1,0,0,2,1,0,0,0,0],"split_type":[0,0,0,0,0,0,0,0,0,0,0,0,0],"sum_hessian":[1.2870789E1,1.1475026E1,1.3957622E0,2.450187E0,9.024839E0,1.1786946E0,1.2714924E0,4.6687727E0,4.3560667E0,3.0885394E0,1.5802332E0,1.0454422E0,3.3106244E0],"tree_param":{"num_deleted":"0","num_feature":"3","num_nodes":"13","size_leaf_vector":"1"}},{"base_weights":[-8.181135E-2,-1.0204564E-1,6.9024235E-2,2.1529742E-1,-8.956067E-2,9.994016E-3,8.527125E-2],"categories":[],"categories_nodes":[],"categories_segments":[],"categories_sizes":[],"default_left":[0,0,0,0,0,0,0],"id":76,"left_children":[1,-1,3,5,-1,-1,-1],"loss_changes":[3.1684428E-1,0E0,3.6452535E-1,4.7939375E-2,0E0,0E0,0E0],"parents":[2147483647,0,0,2,2,3,3],"right_children":[2,-1,4,6,-1,-1,-1],"split_conditions":[0E0,-1.0204564E-1,5.492958E-1,1.7142858E-1,-8.956067E-2,9.994016E-3,8.527125E-2],"split_indices":[0,0,1,0,0,0,0],"split_type":[0,0,0,0,0,0,0],"sum_hessian":[6.528567E0,1.9439632E0,4.584604E0,3.5758283E0,1.0087756E0,1.3899473E0,2.185881E0],"tree_param":{"num_deleted":"0","num_feature":"3","num_nodes":"7","size_leaf_vector":"1"}},{"base_weights":[9.537336E-2,-2.878074E-1,2.8185546E-1,-1.0749189E-1,-1.46759255E-2,8.561333E-2,1.2214128E-1,5.266157E-2,-5.2074185E-3],"categories":[],"categories_nodes":[],"categories_segments":[],"categories_sizes":[],"default_left":[0,0,0,0,0,0,0,0,0],"id":77,"left_children":[1,3,5,-1,-1,7,-1,-1,-1],"loss_changes":[8.1679785E-1,4.7564417E-2,1.4782548E-1,0E0,0E0,4.1581772E-2,0E0,0E0,0E0],"parents":[2147483647,0,0,1,1,2,2,5,5],"right_children":[2,4,6,-1,-1,8,-1,-1,-1],"split_conditions":[4.2857144E-2,-1.5492958E-1,3.2857144E-1,-1.0749189E-1,-1.46759255E-2,2.1428572E-1,1.2214128E-1,5.266157E-2,-5.2074185E-3],"split_indices":[0,1,0,0,0,0,0,0,0],"split_type":[0,0,0,0,0,0,0,0,0],"sum_hessian":[9.2954855E0,2.8650565E0,6.4304295E0,1.8262203E0,1.0388364E0,3.1615446E0,3.268885E0,1.3114872E0,1.8500574E0],"tree_param":{"num_deleted":"0","num_feature":"3","num_nodes":"9","size_leaf_vector":"1"}},{"base_weights":[-3.9795026E-2,1.6032892E-1,-1.028503E-1,2.411544E-1,-4.8854924E-3,-5.821617E-3,1.19108036E-1],"categories":[],"categories_nodes":[],"categories_segments":[],"categories_sizes":[],"default_left":[0,0,0,0,0,0,0],"id":78,"left_children":[1,3,-1,5,-1,-1,-1],"loss_changes":[4.7172835E-1,7.273526E-2,0E0,1.4457881E-1,0E0,0E0,0E0],"parents":[2147483647,0,0,1,1,3,3],"right_children":[2,4,-1,6,-1,-1,-1],"split_conditions":[-1E0,-1.3857143E0,-1.028503E-1,-5.263158E-2,-4.8854924E-3,-5.821617E-3,1.19108036E-1],"split_indices":[0,0,0,2,0,0,0],"split_type":[0,0,0,0,0,0,0],"sum_hessian":[5.8721123E0,3.8202136E0,2.0518985E0,2.3701205E0,1.4500932E0,1.2148516E0,1.1552688E0],"tree_param":{"num_deleted":"0","num_feature":"3","num_nodes":"7","size_leaf_vector":"1"}},{"base_weights":[-5.7066318E-2,1.8122216E-1,-1.0490333E-1,8.001636E-2,6.2221463E-4],"categories":[],"categories_nodes":[],"categories_segments":[],"categories_sizes":[],"default_left":[0,0,0,0,0],"id":79,"left_children":[1,3,-1,-1,-1],"loss_changes":[5.0296456E-1,6.275976E-2,0E0,0E0,0E0],"parents":[2147483647,0,0,1,1],"right_children":[2,4,-1,-1,-1],"split_conditions":[-1.1857142E0,-5.263158E-2,-1.0490333E-1,8.001636E-2,6.2221463E-4],"split_indices":[0,2,0,0,0],"split_type":[0,0,0,0,0],"sum_hessian":[5.304616E0,3.1335108E0,2.1711051E0,1.7902683E0,1.3432425E0],"tree_param":{"num_deleted":"0","num_feature":"3","num_nodes":"5","size_leaf_vector":"1"}},{"base_weights":[2.292123E-3,6.4946115E-2,-8.502758E-2,-1.5586221E-1,1.7638545E-1,-9.6715204E-2,1.6741164E-2,-2.8287272E-3,3.118256E-1,5.9378795E-2,-6.4156584E-2,-1.0602794E-4,1.3304822E-1],"categories":[],"categories_nodes":[],"categories_segments":[],"categories_sizes":[],"default_left":[0,0,0,0,0,0,0,0,0,0,0,0,0],"id":80,"left_children":[1,3,-1,5,7,-1,-1,9,11,-1,-1,-1,-1],"loss_changes":[2.233434E-1,2.7854794E-1,0E0,1.5732141E-1,1.7685375E-1,0E0,0E0,2.1651731E-1,1.7025179E-1,0E0,0E0,0E0,0E0],"parents":[2147483647,0,0,1,1,3,3,4,4,7,7,8,8],"right_children":[2,4,-1,6,8,-1,-1,10,12,-1,-1,-1,-1],"split_conditions":[-1.14285715E-1,-5.714286E-1,-8.502758E-2,2.631579E-1,-3.2394367E-1,-9.6715204E-2,1.6741164E-2,-4.225352E-1,-2.4285714E-1,5.9378795E-2,-6.4156584E-2,-1.0602794E-4,1.3304822E-1],"split_indices":[0,0,0,2,1,0,0,1,0,0,0,0,0],"split_type":[0,0,0,0,0,0,0,0,0,0,0,0,0],"sum_hessian":[1.0448087E1,9.202741E0,1.2453465E0,2.952991E0,6.249749E0,1.359986E0,1.5930052E0,3.1116E0,3.1381493E0,1.6264025E0,1.4851975E0,1.2267959E0,1.9113532E0],"tree_param":{"num_deleted":"0","num_feature":"3","num_nodes":"13","size_leaf_vector":"1"}},{"base_weights":[2.789591E-2,8.2162045E-2,-9.443322E-2,-1.3202165E-1,1.4251122E-1,2.9309992E-2,-9.1562964E-2,1.1187919E-1,5.5144668E-2,-5.6472957E-2,5.9904024E-2],"categories":[],"categories_nodes":[],"categories_segments":[],"categories_sizes":[],"default_left":[0,0,0,0,0,0,0,0,0,0,0],"id":81,"left_children":[1,3,-1,5,7,-1,-1,-1,9,-1,-1],"loss_changes":[2.7127543E-1,1.763306E-1,0E0,1.570488E-1,1.8050759E-1,0E0,0E0,0E0,3.336398E-1,0E0,0E0],"parents":[2147483647,0,0,1,1,3,3,4,4,8,8],"right_children":[2,4,-1,6,8,-1,-1,-1,10,-1,-1],"split_conditions":[4.225352E-1,-7.1428573E-1,-9.443322E-2,-1.0985916E0,-5.714286E-1,2.9309992E-2,-9.1562964E-2,1.1187919E-1,-4.2857143E-1,-5.6472957E-2,5.9904024E-2],"split_indices":[1,0,0,1,0,0,0,0,0,0,0],"split_type":[0,0,0,0,0,0,0,0,0,0,0],"sum_hessian":[1.2197387E1,1.1186165E1,1.0112215E0,2.1979277E0,8.988237E0,1.1321229E0,1.0658048E0,1.5724647E0,7.4157724E0,2.650354E0,4.7654185E0],"tree_param":{"num_deleted":"0","num_feature":"3","num_nodes":"11","size_leaf_vector":"1"}},{"base_weights":[-7.5147994E-2,-9.7389795E-2,6.372388E-2,1.96928E-1,-7.7508815E-2,4.108933E-2,1.0649839E-1,2.6575974E-3,1.6121076E-2],"categories":[],"categories_nodes":[],"categories_segments":[],"categories_sizes":[],"default_left":[0,0,0,0,0,0,0,0,0],"id":82,"left_children":[1,-1,3,5,-1,7,-1,-1,-1],"loss_changes":[2.6822177E-1,0E0,2.8365868E-1,9.394029E-2,0E0,8.893204E-4,0E0,0E0,0E0],"parents":[2147483647,0,0,2,2,3,3,5,5],"right_children":[2,-1,4,6,-1,8,-1,-1,-1],"split_conditions":[0E0,-9.7389795E-2,3.2857144E-1,3.6842105E-1,-7.7508815E-2,-6.8421054E-1,1.0649839E-1,2.6575974E-3,1.6121076E-2],"split_indices":[0,0,0,2,0,2,0,0,0],"split_type":[0,0,0,0,0,0,0,0,0],"sum_hessian":[6.1446075E0,1.7189164E0,4.425691E0,3.4057677E0,1.0199234E0,2.3494163E0,1.0563514E0,1.1413254E0,1.2080908E0],"tree_param":{"num_deleted":"0","num_feature":"3","num_nodes":"9","size_leaf_vector":"1"}},{"base_weights":[8.1604704E-2,-1.775112E-1,3.323687E-1,-1.0118921E-1,9.146878E-3,3.1278923E-2,1.1643442E-1,4.162383E-2,-4.102956E-2],"categories":[],"categories_nodes":[],"categories_segments":[],"categories_sizes":[],"default_left":[0,0,0,0,0,0,0,0,0],"id":83,"left_children":[1,3,5,-1,7,-1,-1,-1,-1],"loss_changes":[6.7669594E-1,1.6197093E-1,2.5392652E-2,0E0,8.38485E-2,0E0,0E0,0E0,0E0],"parents":[2147483647,0,0,1,1,2,2,4,4],"right_children":[2,4,6,-1,8,-1,-1,-1,-1],"split_conditions":[2.4285714E-1,1.4285714E-2,3.2857144E-1,-1.0118921E-1,1.5714286E-1,3.1278923E-2,1.1643442E-1,4.162383E-2,-4.102956E-2],"split_indices":[0,0,0,0,0,0,0,0,0],"split_type":[0,0,0,0,0,0,0,0,0],"sum_hessian":[8.5064E0,4.327199E0,4.1792016E0,1.8966036E0,2.4305954E0,1.3844657E0,2.7947357E0,1.3132645E0,1.117331E0],"tree_param":{"num_deleted":"0","num_feature":"3","num_nodes":"9","size_leaf_vector":"1"}},{"base_weights":[-3.0753607E-2,2.3412229E-1,-2.313087E-1,-8.135142E-3,1.1786551E-1,-6.0607153E-3,-1.08413875E-1],"categories":[],"categories_nodes":[],"categories_segments":[],"categories_sizes":[],"default_left":[0,0,0,0,0,0,0],"id":84,"left_children":[1,3,5,-1,-1,-1,-1],"loss_changes":[3.9830178E-1,1.470462E-1,1.07748E-1,0E0,0E0,0E0,0E0],"parents":[2147483647,0,0,1,1,2,2],"right_children":[2,4,6,-1,-1,-1,-1],"split_conditions":[-1.3857143E0,-1.5857143E0,-3.691046E-2,-8.135142E-3,1.1786551E-1,-6.0607153E-3,-1.08413875E-1],"split_indices":[0,0,2,0,0,0,0],"split_type":[0,0,0,0,0,0,0],"sum_hessian":[5.4784064E0,2.288535E0,3.1898715E0,1.178517E0,1.110018E0,1.6565663E0,1.5333053E0],"tree_param":{"num_deleted":"0","num_feature":"3","num_nodes":"7","size_leaf_vector":"1"}},{"base_weights":[-4.543248E-2,1.6265875E-1,-1.03646934E-1,9.638036E-2,2.653169E-3,-3.0568438E-2,3.1021597E-2],"categories":[],"categories_nodes":[],"categories_segments":[],"categories_sizes":[],"default_left":[0,0,0,0,0,0,0],"id":85,"left_children":[1,3,-1,-1,5,-1,-1],"loss_changes":[4.2744538E-1,1.0550349E-1,0E0,0E0,4.3132696E-2,0E0,0E0],"parents":[2147483647,0,0,1,1,4,4],"right_children":[2,4,-1,-1,6,-1,-1],"split_conditions":[-3.943662E-1,-1.4857143E0,-1.03646934E-1,9.638036E-2,3.1578946E-1,-3.0568438E-2,3.1021597E-2],"split_indices":[1,0,0,0,2,0,0],"split_type":[0,0,0,0,0,0,0],"sum_hessian":[4.94575E0,3.1908133E0,1.7549372E0,1.0962635E0,2.0945497E0,1.022346E0,1.0722036E0],"tree_param":{"num_deleted":"0","num_feature":"3","num_nodes":"7","size_leaf_vector":"1"}},{"base_weights":[-8.2556315E-4,5.521627E-2,-7.956296E-2,-3.3652168E-2,9.389512E-2,-1.1087717E-1,1.1264428E-1,6.584919E-2,-5.8117084E-2],"categories":[],"categories_nodes":[],"categories_segments":[],"categories_sizes":[],"default_left":[0,0,0,0,0,0,0,0,0],"id":86,"left_children":[1,3,-1,5,-1,-1,7,-1,-1],"loss_changes":[1.7654693E-1,2.3602594E-1,0E0,4.4576204E-1,0E0,0E0,2.5513607E-1,0E0,0E0],"parents":[2147483647,0,0,1,1,3,3,6,6],"right_children":[2,4,-1,6,-1,-1,8,-1,-1],"split_conditions":[-1.14285715E-1,-4.225352E-2,-7.956296E-2,1.5789473E-1,9.389512E-2,-1.1087717E-1,-4.2857143E-1,6.584919E-2,-5.8117084E-2],"split_indices":[0,1,0,2,0,0,0,0,0],"split_type":[0,0,0,0,0,0,0,0,0],"sum_hessian":[9.927152E0,8.843696E0,1.0834565E0,7.222945E0,1.62075E0,1.7281977E0,5.4947476E0,4.284112E0,1.2106353E0],"tree_param":{"num_deleted":"0","num_feature":"3","num_nodes":"9","size_leaf_vector":"1"}},{"base_weights":[2.1656873E-2,1.3908102E-1,-1.1691424E-1,2.5163445E-4,1.2439047E-1,2.6240807E-2,-2.1489903E-1,-1.1781693E-1,6.8862416E-2,-9.632375E-2,-1.092402E-2,8.657734E-3,-9.4664015E-2],"categories":[],"categories_nodes":[],"categories_segments":[],"categories_sizes":[],"default_left":[0,0,0,0,0,0,0,0,0,0,0,0,0],"id":87,"left_children":[1,3,5,7,-1,-1,9,11,-1,-1,-1,-1,-1],"loss_changes":[2.207581E-1,2.7761447E-1,1.4512584E-1,1.8482167E-1,0E0,0E0,7.4598655E-2,1.398462E-1,0E0,0E0,0E0,0E0,0E0],"parents":[2147483647,0,0,1,1,2,2,3,3,6,6,7,7],"right_children":[2,4,6,8,-1,-1,10,12,-1,-1,-1,-1,-1],"split_conditions":[-3.0985916E-1,6.315789E-1,-2.4285714E-1,-4.225352E-1,1.2439047E-1,2.6240807E-2,-1.14285715E-1,-7E-1,6.8862416E-2,-9.632375E-2,-1.092402E-2,8.657734E-3,-9.4664015E-2],"split_indices":[1,2,0,1,0,0,0,0,0,0,0,0,0],"split_type":[0,0,0,0,0,0,0,0,0,0,0,0,0],"sum_hessian":[1.1567762E1,6.259678E0,5.308085E0,4.8281E0,1.4315774E0,1.7549026E0,3.5531821E0,3.5079246E0,1.320176E0,1.7269323E0,1.82625E0,2.5042892E0,1.0036353E0],"tree_param":{"num_deleted":"0","num_feature":"3","num_nodes":"13","size_leaf_vector":"1"}},{"base_weights":[-6.282921E-2,-9.28176E-2,6.928253E-2,2.1578668E-1,-3.288999E-2,1.9546676E-2,7.91689E-2],"categories":[],"categories_nodes":[],"categories_segments":[],"categories_sizes":[],"default_left":[0,0,0,0,0,0,0],"id":88,"left_children":[1,-1,3,5,-1,-1,-1],"loss_changes":[2.4017662E-1,0E0,1.5968333E-1,5.92348E-3,0E0,0E0,0E0],"parents":[2147483647,0,0,2,2,3,3],"right_children":[2,-1,4,6,-1,-1,-1],"split_conditions":[0E0,-9.28176E-2,2.4285714E-1,1.5714286E-1,-3.288999E-2,1.9546676E-2,7.91689E-2],"split_indices":[0,0,0,0,0,0,0],"split_type":[0,0,0,0,0,0,0],"sum_hessian":[5.7152405E0,1.5257698E0,4.1894703E0,2.1900675E0,1.999403E0,1.1000693E0,1.0899982E0],"tree_param":{"num_deleted":"0","num_feature":"3","num_nodes":"7","size_leaf_vector":"1"}},{"base_weights":[7.1796395E-2,-9.640483E-2,2.1014133E-1,6.667433E-2,1.2078557E-1,-1.0012451E-1,9.204192E-2,6.1701227E-2,-1.2526232E-1],"categories":[],"categories_nodes":[],"categories_segments":[],"categories_sizes":[],"default_left":[0,0,0,0,0,0,0,0,0],"id":89,"left_children":[1,-1,3,5,-1,7,-1,-1,-1],"loss_changes":[5.4336506E-1,0E0,1.6855389E-1,2.4110647E-1,0E0,4.5991957E-1,0E0,0E0,0E0],"parents":[2147483647,0,0,2,2,3,3,5,5],"right_children":[2,-1,4,6,-1,8,-1,-1,-1],"split_conditions":[1.4285714E-2,-9.640483E-2,5.492958E-1,3.2857144E-1,1.2078557E-1,1.7142858E-1,9.204192E-2,6.1701227E-2,-1.2526232E-1],"split_indices":[0,0,1,0,0,0,0,0,0],"split_type":[0,0,0,0,0,0,0,0,0],"sum_hessian":[7.748641E0,1.6726176E0,6.076023E0,4.252633E0,1.82339E0,2.8535585E0,1.3990748E0,1.6326911E0,1.2208673E0],"tree_param":{"num_deleted":"0","num_feature":"3","num_nodes":"9","size_leaf_vector":"1"}},{"base_weights":[-2.405175E-2,2.2502054E-1,-2.1879286E-1,-6.1856047E-3,1.1123394E-1,-7.244178E-3,-1.0247305E-1],"categories":[],"categories_nodes":[],"categories_segments":[],"categories_sizes":[],"default_left":[0,0,0,0,0,0,0],"id":90,"left_children":[1,3,5,-1,-1,-1,-1],"loss_changes":[3.498296E-1,1.22658506E-1,8.699055E-2,0E0,0E0,0E0,0E0],"parents":[2147483647,0,0,1,1,2,2],"right_children":[2,4,6,-1,-1,-1,-1],"split_conditions":[-1.3857143E0,-1.5857143E0,-3.691046E-2,-6.1856047E-3,1.1123394E-1,-7.244178E-3,-1.0247305E-1],"split_indices":[0,0,2,0,0,0,0],"split_type":[0,0,0,0,0,0,0],"sum_hessian":[5.1972814E0,2.2122922E0,2.9849892E0,1.1435983E0,1.0686939E0,1.6174927E0,1.3674965E0],"tree_param":{"num_deleted":"0","num_feature":"3","num_nodes":"7","size_leaf_vector":"1"}},{"base_weights":[-3.432074E-2,1.6813469E-1,-9.607357E-2,7.3104855E-3,8.4626764E-2],"categories":[],"categories_nodes":[],"categories_segments":[],"categories_sizes":[],"default_left":[0,0,0,0,0],"id":91,"left_children":[1,3,-1,-1,-1],"loss_changes":[3.8243976E-1,5.8314353E-2,0E0,0E0,0E0],"parents":[2147483647,0,0,1,1],"right_children":[2,4,-1,-1,-1],"split_conditions":[-1.1857142E0,-1.4285715E0,-9.607357E-2,7.3104855E-3,8.4626764E-2],"split_indices":[0,0,0,0,0],"split_type":[0,0,0,0,0],"sum_hessian":[4.6765018E0,2.9790661E0,1.6974356E0,1.8539467E0,1.1251196E0],"tree_param":{"num_deleted":"0","num_feature":"3","num_nodes":"5","size_leaf_vector":"1"}},{"base_weights":[-7.987105E-3,-1.5228795E-1,6.0855974E-2,-9.086437E-2,1.4707448E-2,2.755608E-1,-9.8943554E-2,1.2034046E-2,1.0918471E-1,8.530107E-2,-1.1615707E-1,-2.5176827E-2,5.2742925E-2],"categories":[],"categories_nodes":[],"categories_segments":[],"categories_sizes":[],"default_left":[0,0,0,0,0,0,0,0,0,0,0,0,0],"id":92,"left_children":[1,3,5,-1,-1,7,9,-1,-1,11,-1,-1,-1],"loss_changes":[1.13115154E-1,1.2586474E-1,2.9459637E-1,0E0,0E0,6.0088307E-2,3.0933845E-1,0E0,0E0,7.591948E-2,0E0,0E0,0E0],"parents":[2147483647,0,0,1,1,2,2,5,5,6,6,9,9],"right_children":[2,4,6,-1,-1,8,10,-1,-1,12,-1,-1,-1],"split_conditions":[-5.714286E-1,-7.4647886E-1,-4.2857143E-1,-9.086437E-2,1.4707448E-2,-4.6478873E-1,2.1052632E-1,1.2034046E-2,1.0918471E-1,-2.2857143E-1,-1.1615707E-1,-2.5176827E-2,5.2742925E-2],"split_indices":[0,1,0,0,0,1,2,0,0,0,0,0,0],"split_type":[0,0,0,0,0,0,0,0,0,0,0,0,0],"sum_hessian":[9.453629E0,2.6619198E0,6.7917085E0,1.2341646E0,1.4277552E0,2.58889E0,4.2028184E0,1.1034279E0,1.4854621E0,2.9934816E0,1.2093369E0,1.0684915E0,1.92499E0],"tree_param":{"num_deleted":"0","num_feature":"3","num_nodes":"13","size_leaf_vector":"1"}},{"base_weights":[2.0997316E-2,7.258136E-2,-7.9120465E-2,-1.3651869E-1,1.3779946E-1,2.6789201E-2,-8.8873655E-2,2.480704E-1,-6.439585E-3,2.5392884E-2,1.2166797E-1,4.7969062E-2,-4.1929662E-2],"categories":[],"categories_nodes":[],"categories_segments":[],"categories_sizes":[],"default_left":[0,0,0,0,0,0,0,0,0,0,0,0,0],"id":93,"left_children":[1,3,-1,5,7,-1,-1,9,11,-1,-1,-1,-1],"loss_changes":[1.9627826E-1,1.6874683E-1,0E0,1.3885395E-1,1.428109E-1,0E0,0E0,9.582853E-2,1.2927206E-1,0E0,0E0,0E0,0E0],"parents":[2147483647,0,0,1,1,3,3,4,4,7,7,8,8],"right_children":[2,4,-1,6,8,-1,-1,10,12,-1,-1,-1,-1],"split_conditions":[0E0,-7.1428573E-1,-7.9120465E-2,-1.0985916E0,-3.0985916E-1,2.6789201E-2,-8.8873655E-2,6.315789E-1,-4.2105263E-1,2.5392884E-2,1.2166797E-1,4.7969062E-2,-4.1929662E-2],"split_indices":[0,0,0,1,1,0,0,2,2,0,0,0,0],"split_type":[0,0,0,0,0,0,0,0,0,0,0,0,0],"sum_hessian":[1.1060211E1,9.994608E0,1.0656028E0,2.116261E0,7.8783474E0,1.0594234E0,1.0568374E0,4.0569487E0,3.8213987E0,2.745443E0,1.3115053E0,1.6115491E0,2.2098496E0],"tree_param":{"num_deleted":"0","num_feature":"3","num_nodes":"13","size_leaf_vector":"1"}},{"base_weights":[-5.417953E-2,-8.862676E-2,7.167835E-2,5.8943022E-2,-2.7051805E-2],"categories":[],"categories_nodes":[],"categories_segments":[],"categories_sizes":[],"default_left":[0,0,0,0,0],"id":94,"left_children":[1,-1,3,-1,-1],"loss_changes":[2.1377005E-1,0E0,1.18169874E-1,0E0,0E0],"parents":[2147483647,0,0,2,2],"right_children":[2,-1,4,-1,-1],"split_conditions":[0E0,-8.862676E-2,2.4285714E-1,5.8943022E-2,-2.7051805E-2],"split_indices":[0,0,0,0,0],"split_type":[0,0,0,0,0],"sum_hessian":[5.3432097E0,1.3699788E0,3.973231E0,2.1226132E0,1.8506179E0],"tree_param":{"num_deleted":"0","num_feature":"3","num_nodes":"5","size_leaf_vector":"1"}},{"base_weights":[6.399719E-2,-2.5143966E-1,2.2616896E-1,-9.131386E-2,-2.1457136E-2,7.914818E-2,1.13310315E-1,7.494885E-2,-4.189665E-2],"categories":[],"categories_nodes":[],"categories_segments":[],"categories_sizes":[],"default_left":[0,0,0,0,0,0,0,0,0],"id":95,"left_children":[1,3,5,-1,-1,7,-1,-1,-1],"loss_changes":[4.7077098E-1,8.90775E-3,1.0088563E-1,0E0,0E0,1.9340728E-1,0E0,0E0,0E0],"parents":[2147483647,0,0,1,1,2,2,5,5],"right_children":[2,4,6,-1,-1,8,-1,-1,-1],"split_conditions":[4.2857144E-2,-2.8169015E-1,5.492958E-1,-9.131386E-2,-2.1457136E-2,3.0985916E-1,1.13310315E-1,7.494885E-2,-4.189665E-2],"split_indices":[0,1,1,0,0,1,0,0,0],"split_type":[0,0,0,0,0,0,0,0,0],"sum_hessian":[7.0911636E0,2.220895E0,4.8702683E0,1.1814641E0,1.039431E0,3.244592E0,1.6256764E0,1.7430784E0,1.5015136E0],"tree_param":{"num_deleted":"0","num_feature":"3","num_nodes":"9","size_leaf_vector":"1"}},{"base_weights":[-1.7045137E-2,1.4255245E-1,-9.037414E-2,2.1251808E-1,-4.1859304E-3,-5.863664E-3,1.0591347E-1],"categories":[],"categories_nodes":[],"categories_segments":[],"categories_sizes":[],"default_left":[0,0,0,0,0,0,0],"id":96,"left_children":[1,3,-1,5,-1,-1,-1],"loss_changes":[3.1280065E-1,5.211717E-2,0E0,1.1006962E-1,0E0,0E0,0E0],"parents":[2147483647,0,0,1,1,3,3],"right_children":[2,4,-1,6,-1,-1,-1],"split_conditions":[-1E0,-1.3857143E0,-9.037414E-2,-1.5857143E0,-4.1859304E-3,-5.863664E-3,1.0591347E-1],"split_indices":[0,0,0,0,0,0,0],"split_type":[0,0,0,0,0,0,0],"sum_hessian":[4.9494996E0,3.488753E0,1.4607464E0,2.1636162E0,1.3251369E0,1.1407359E0,1.0228802E0],"tree_param":{"num_deleted":"0","num_feature":"3","num_nodes":"7","size_leaf_vector":"1"}},{"base_weights":[-2.6460215E-2,1.5744533E-1,-9.578949E-2,9.026952E-2,1.409273E-3],"categories":[],"categories_nodes":[],"categories_segments":[],"categories_sizes":[],"default_left":[0,0,0,0,0],"id":97,"left_children":[1,3,-1,-1,-1],"loss_changes":[3.424202E-1,8.627649E-2,0E0,0E0,0E0],"parents":[2147483647,0,0,1,1],"right_children":[2,4,-1,-1,-1],"split_conditions":[-3.943662E-1,-1.4857143E0,-9.578949E-2,9.026952E-2,1.409273E-3],"split_indices":[1,0,0,0,0],"split_type":[0,0,0,0,0],"sum_hessian":[4.424763E0,3.00189E0,1.4228733E0,1.0478745E0,1.9540155E0],"tree_param":{"num_deleted":"0","num_feature":"3","num_nodes":"5","size_leaf_vector":"1"}},{"base_weights":[-7.4219042E-3,-1.4961213E-1,5.9164833E-2,-8.726999E-2,1.1819997E-2,2.591255E-1,-9.260686E-2,1.4399334E-2,1.0000275E-1,7.616853E-2,-1.0912036E-1,-2.5472296E-2,4.9645267E-2],"categories":[],"categories_nodes":[],"categories_segments":[],"categories_sizes":[],"default_left":[0,0,0,0,0,0,0,0,0,0,0,0,0],"id":98,"left_children":[1,3,5,-1,-1,7,9,-1,-1,11,-1,-1,-1],"loss_changes":[1.0432916E-1,1.0491935E-1,2.541774E-1,0E0,0E0,3.9407298E-2,2.5872657E-1,0E0,0E0,7.071218E-2,0E0,0E0,0E0],"parents":[2147483647,0,0,1,1,2,2,5,5,6,6,9,9],"right_children":[2,4,6,-1,-1,8,10,-1,-1,12,-1,-1,-1],"split_conditions":[-5.714286E-1,2.631579E-1,-4.2857143E-1,-8.726999E-2,1.1819997E-2,-4.6478873E-1,2.1052632E-1,1.4399334E-2,1.0000275E-1,-4.225352E-2,-1.0912036E-1,-2.5472296E-2,4.9645267E-2],"split_indices":[0,2,0,0,0,1,2,0,0,1,0,0,0],"split_type":[0,0,0,0,0,0,0,0,0,0,0,0,0],"sum_hessian":[9.084237E0,2.499626E0,6.5846114E0,1.1219249E0,1.377701E0,2.5360298E0,4.0485816E0,1.0879164E0,1.4481133E0,2.9384692E0,1.1101123E0,1.065767E0,1.872702E0],"tree_param":{"num_deleted":"0","num_feature":"3","num_nodes":"13","size_leaf_vector":"1"}},{"base_weights":[1.6261147E-2,7.288535E-2,-6.0475636E-2,-3.9458264E-2,2.2587305E-1,6.984122E-2,-6.273052E-2,9.3245454E-2,-9.46586E-4,-3.5581503E-2,1.0563145E-1],"categories":[],"categories_nodes":[],"categories_segments":[],"categories_sizes":[],"default_left":[0,0,0,0,0,0,0,0,0,0,0],"id":99,"left_children":[1,3,-1,5,7,9,-1,-1,-1,-1,-1],"loss_changes":[1.5696572E-1,1.7887221E-1,0E0,1.3611014E-1,8.533092E-2,2.9362097E-1,0E0,0E0,0E0,0E0,0E0],"parents":[2147483647,0,0,1,1,3,3,4,4,5,5],"right_children":[2,4,-1,6,8,10,-1,-1,-1,-1,-1],"split_conditions":[1.4084508E-1,-4.2857143E-1,-6.0475636E-2,-4.6478873E-1,-4.225352E-2,5.263158E-1,-6.273052E-2,9.3245454E-2,-9.46586E-4,-3.5581503E-2,1.0563145E-1],"split_indices":[1,0,0,1,1,2,0,0,0,0,0],"split_type":[0,0,0,0,0,0,0,0,0,0,0],"sum_hessian":[1.0533734E1,8.88874E0,1.6449949E0,5.553047E0,3.3356924E0,3.7349586E0,1.8180883E0,2.172726E0,1.1629664E0,2.587372E0,1.1475867E0],"tree_param":{"num_deleted":"0","num_feature":"3","num_nodes":"11","size_leaf_vector":"1"}},{"base_weights":[-4.9299385E-2,-7.7047735E-2,8.239701E-2,6.346334E-2,-2.2174912E-2],"categories":[],"categories_nodes":[],"categories_segments":[],"categories_sizes":[],"default_left":[0,0,0,0,0],"id":100,"left_children":[1,-1,3,-1,-1],"loss_changes":[1.8709613E-1,0E0,1.0590298E-1,0E0,0E0],"parents":[2147483647,0,0,2,2],"right_children":[2,-1,4,-1,-1],"split_conditions":[2.8571429E-2,-7.7047735E-2,2.4285714E-1,6.346334E-2,-2.2174912E-2],"split_indices":[0,0,0,0,0],"split_type":[0,0,0,0,0],"sum_hessian":[5.071408E0,1.6000009E0,3.471407E0,1.7074018E0,1.7640053E0],"tree_param":{"num_deleted":"0","num_feature":"3","num_nodes":"5","size_leaf_vector":"1"}},{"base_weights":[5.6250982E-2,-8.9405976E-2,1.8230623E-1,4.234841E-2,1.0082811E-1,5.79935E-2,-3.105246E-2],"categories":[],"categories_nodes":[],"categories_segments":[],"categories_sizes":[],"default_left":[0,0,0,0,0,0,0],"id":101,"left_children":[1,-1,3,5,-1,-1,-1],"loss_changes":[3.9694673E-1,0E0,1.2091613E-1,1.17586754E-1,0E0,0E0,0E0],"parents":[2147483647,0,0,2,2,3,3],"right_children":[2,-1,4,6,-1,-1,-1],"split_conditions":[1.4285714E-2,-8.9405976E-2,3.2857144E-1,1.7142858E-1,1.0082811E-1,5.79935E-2,-3.105246E-2],"split_indices":[0,0,0,0,0,0,0],"split_type":[0,0,0,0,0,0,0],"sum_hessian":[6.672043E0,1.392973E0,5.27907E0,3.4315126E0,1.8475573E0,1.5263592E0,1.9051533E0],"tree_param":{"num_deleted":"0","num_feature":"3","num_nodes":"7","size_leaf_vector":"1"}},{"base_weights":[-1.5904985E-2,6.09286E-2,-1.9832207E-1,-5.32707E-3,-9.416085E-2],"categories":[],"categories_nodes":[],"categories_segments":[],"categories_sizes":[],"default_left":[0,0,0,0,0],"id":102,"left_children":[1,-1,3,-1,-1],"loss_changes":[2.6766568E-1,0E0,6.9771245E-2,0E0,0E0],"parents":[2147483647,0,0,2,2],"right_children":[2,-1,4,-1,-1],"split_conditions":[-1.3857143E0,6.09286E-2,-3.691046E-2,-5.32707E-3,-9.416085E-2],"split_indices":[0,0,2,0,0],"split_type":[0,0,0,0,0],"sum_hessian":[4.691885E0,2.0806315E0,2.6112533E0,1.4691298E0,1.1421235E0],"tree_param":{"num_deleted":"0","num_feature":"3","num_nodes":"5","size_leaf_vector":"1"}},{"base_weights":[-1.8427476E-2,1.5412329E-1,-9.171453E-2,8.423292E-2,4.0414617E-3],"categories":[],"categories_nodes":[],"categories_segments":[],"categories_sizes":[],"default_left":[0,0,0,0,0],"id":103,"left_children":[1,3,-1,-1,-1],"loss_changes":[3.055778E-1,6.608809E-2,0E0,0E0,0E0],"parents":[2147483647,0,0,1,1],"right_children":[2,4,-1,-1,-1],"split_conditions":[-3.943662E-1,-1.4857143E0,-9.171453E-2,8.423292E-2,4.0414617E-3],"split_indices":[1,0,0,0,0],"split_type":[0,0,0,0,0],"sum_hessian":[4.2138624E0,2.9222326E0,1.2916296E0,1.0134215E0,1.9088111E0],"tree_param":{"num_deleted":"0","num_feature":"3","num_nodes":"5","size_leaf_vector":"1"}},{"base_weights":[-9.193842E-3,-1.2145159E-1,7.404012E-2,-1.0823484E-1,4.507785E-2,1.8191938E-1,-5.1298752E-2,-3.5570852E-2,9.573722E-2],"categories":[],"categories_nodes":[],"categories_segments":[],"categories_sizes":[],"default_left":[0,0,0,0,0,0,0,0,0],"id":104,"left_children":[1,3,5,-1,-1,7,-1,-1,-1],"loss_changes":[1.00013025E-1,3.485533E-1,1.9539979E-1,0E0,0E0,2.3572697E-1,0E0,0E0,0E0],"parents":[2147483647,0,0,1,1,2,2,5,5],"right_children":[2,4,6,-1,-1,8,-1,-1,-1],"split_conditions":[1.5789473E-1,-2.4285714E-1,-4.2857143E-1,-1.0823484E-1,4.507785E-2,-7.4647886E-1,-5.1298752E-2,-3.5570852E-2,9.573722E-2],"split_indices":[2,0,0,0,0,1,0,0,0],"split_type":[0,0,0,0,0,0,0,0,0],"sum_hessian":[8.741447E0,3.5263271E0,5.215121E0,1.7005843E0,1.8257428E0,3.799804E0,1.4153166E0,1.2337078E0,2.5660963E0],"tree_param":{"num_deleted":"0","num_feature":"3","num_nodes":"9","size_leaf_vector":"1"}},{"base_weights":[1.4103128E-2,1.1266794E-1,-1.01893544E-1,-5.067994E-2,2.6233867E-1,2.3866225E-2,-1.927761E-1,2.0721797E-2,-5.3998504E-2,2.6099676E-2,1.0086257E-1,-8.7706074E-2,-4.157856E-3],"categories":[],"categories_nodes":[],"categories_segments":[],"categories_sizes":[],"default_left":[0,0,0,0,0,0,0,0,0,0,0,0,0],"id":105,"left_children":[1,3,5,7,9,-1,11,-1,-1,-1,-1,-1,-1],"loss_changes":[1.3848968E-1,1.717351E-1,1.0814863E-1,7.339728E-2,1.6650379E-2,0E0,6.796266E-2,0E0,0E0,0E0,0E0,0E0,0E0],"parents":[2147483647,0,0,1,1,2,2,3,3,4,4,6,6],"right_children":[2,4,6,8,10,-1,12,-1,-1,-1,-1,-1,-1],"split_conditions":[-3.0985916E-1,5.263158E-1,-2.4285714E-1,2.631579E-1,6.315789E-1,2.3866225E-2,-1.14285715E-1,2.0721797E-2,-5.3998504E-2,2.6099676E-2,1.0086257E-1,-8.7706074E-2,-4.157856E-3],"split_indices":[1,2,0,2,2,0,0,0,0,0,0,0,0],"split_type":[0,0,0,0,0,0,0,0,0,0,0,0,0],"sum_hessian":[1.0108845E1,5.4805784E0,4.6282663E0,2.9367995E0,2.5437787E0,1.5861522E0,3.042114E0,1.7666478E0,1.1701518E0,1.3995343E0,1.1442444E0,1.5470623E0,1.4950516E0],"tree_param":{"num_deleted":"0","num_feature":"3","num_nodes":"13","size_leaf_vector":"1"}},{"base_weights":[-4.1941177E-2,-8.125508E-2,7.062972E-2,4.9838696E-2,-1.890304E-2],"categories":[],"categories_nodes":[],"categories_segments":[],"categories_sizes":[],"default_left":[0,0,0,0,0],"id":106,"left_children":[1,-1,3,-1,-1],"loss_changes":[1.6984534E-1,0E0,7.062882E-2,0E0,0E0],"parents":[2147483647,0,0,2,2],"right_children":[2,-1,4,-1,-1],"split_conditions":[0E0,-8.125508E-2,2.4285714E-1,4.9838696E-2,-1.890304E-2],"split_indices":[0,0,0,0,0],"split_type":[0,0,0,0,0],"sum_hessian":[4.8488183E0,1.1349319E0,3.7138865E0,2.0242467E0,1.6896398E0],"tree_param":{"num_deleted":"0","num_feature":"3","num_nodes":"5","size_leaf_vector":"1"}},{"base_weights":[5.0356142E-2,-6.946079E-2,1.9759539E-1,5.571344E-2,1.0482413E-1,6.797545E-2,-4.477401E-2],"categories":[],"categories_nodes":[],"categories_segments":[],"categories_sizes":[],"default_left":[0,0,0,0,0,0,0],"id":107,"left_children":[1,-1,3,5,-1,-1,-1],"loss_changes":[3.4643778E-1,0E0,9.466174E-2,1.714008E-1,0E0,0E0,0E0],"parents":[2147483647,0,0,2,2,3,3],"right_children":[2,-1,4,6,-1,-1,-1],"split_conditions":[4.2857144E-2,-6.946079E-2,5.492958E-1,3.0985916E-1,1.0482413E-1,6.797545E-2,-4.477401E-2],"split_indices":[0,0,1,1,0,0,0],"split_type":[0,0,0,0,0,0,0],"sum_hessian":[6.2445035E0,1.9461159E0,4.2983875E0,2.9285157E0,1.3698721E0,1.539531E0,1.3889847E0],"tree_param":{"num_deleted":"0","num_feature":"3","num_nodes":"7","size_leaf_vector":"1"}},{"base_weights":[-1.6822845E-2,5.6247164E-2,-1.8981004E-1,-6.059237E-3,-8.976799E-2],"categories":[],"categories_nodes":[],"categories_segments":[],"categories_sizes":[],"default_left":[0,0,0,0,0],"id":108,"left_children":[1,-1,3,-1,-1],"loss_changes":[2.3054415E-1,0E0,5.8612764E-2,0E0,0E0],"parents":[2147483647,0,0,2,2],"right_children":[2,-1,4,-1,-1],"split_conditions":[-1.3857143E0,5.6247164E-2,-3.691046E-2,-6.059237E-3,-8.976799E-2],"split_indices":[0,0,2,0,0],"split_type":[0,0,0,0,0],"sum_hessian":[4.5160356E0,2.0321012E0,2.4839344E0,1.4385511E0,1.0453833E0],"tree_param":{"num_deleted":"0","num_feature":"3","num_nodes":"5","size_leaf_vector":"1"}},{"base_weights":[-1.0595844E-2,1.5618145E-1,-8.502627E-2,7.4595013E-3,7.607405E-2],"categories":[],"categories_nodes":[],"categories_segments":[],"categories_sizes":[],"default_left":[0,0,0,0,0],"id":109,"left_children":[1,3,-1,-1,-1],"loss_changes":[2.7349457E-1,4.1930243E-2,0E0,0E0,0E0],"parents":[2147483647,0,0,1,1],"right_children":[2,4,-1,-1,-1],"split_conditions":[-1.1857142E0,-1.4285715E0,-8.502627E-2,7.4595013E-3,7.607405E-2],"split_indices":[0,0,0,0,0],"split_type":[0,0,0,0,0],"sum_hessian":[4.0378985E0,2.7713306E0,1.2665678E0,1.7147431E0,1.0565875E0],"tree_param":{"num_deleted":"0","num_feature":"3","num_nodes":"5","size_leaf_vector":"1"}},{"base_weights":[-1.3569756E-2,-1.2268719E-1,6.739649E-2,-1.02921434E-1,3.689877E-2,1.6869816E-1,-4.817467E-2,-3.174171E-2,2.955023E-1,3.1395137E-2,1.0911123E-1],"categories":[],"categories_nodes":[],"categories_segments":[],"categories_sizes":[],"default_left":[0,0,0,0,0,0,0,0,0,0,0],"id":110,"left_children":[1,3,5,-1,-1,7,-1,-1,9,-1,-1],"loss_changes":[9.0617314E-2,2.763617E-1,1.655676E-1,0E0,0E0,1.927447E-1,0E0,0E0,6.6744983E-3,0E0,0E0],"parents":[2147483647,0,0,1,1,2,2,5,5,8,8],"right_children":[2,4,6,-1,-1,8,-1,-1,10,-1,-1],"split_conditions":[1.5789473E-1,-2.4285714E-1,-4.2857143E-1,-1.02921434E-1,3.689877E-2,-7.4647886E-1,-4.817467E-2,-3.174171E-2,-4.6478873E-1,3.1395137E-2,1.0911123E-1],"split_indices":[2,0,0,0,0,1,0,0,1,0,0],"split_type":[0,0,0,0,0,0,0,0,0,0,0],"sum_hessian":[8.320908E0,3.3248076E0,4.9960995E0,1.543684E0,1.7811238E0,3.639102E0,1.3569974E0,1.2021981E0,2.436904E0,1.3088156E0,1.1280884E0],"tree_param":{"num_deleted":"0","num_feature":"3","num_nodes":"11","size_leaf_vector":"1"}},{"base_weights":[1.2252952E-2,1.0801944E-1,-9.947377E-2,-5.046559E-2,2.516633E-1,1.8164583E-2,-1.962766E-1,1.5680203E-2,-4.7794018E-2,2.5302807E-2,9.617594E-2,-1.9351562E-2,-6.8833336E-2],"categories":[],"categories_nodes":[],"categories_segments":[],"categories_sizes":[],"default_left":[0,0,0,0,0,0,0,0,0,0,0,0,0],"id":111,"left_children":[1,3,5,7,9,-1,11,-1,-1,-1,-1,-1,-1],"loss_changes":[1.24972E-1,1.5448008E-1,9.627524E-2,5.0751615E-2,1.2561783E-2,0E0,1.0657609E-3,0E0,0E0,0E0,0E0,0E0,0E0],"parents":[2147483647,0,0,1,1,2,2,3,3,4,4,6,6],"right_children":[2,4,6,8,10,-1,12,-1,-1,-1,-1,-1,-1],"split_conditions":[-3.0985916E-1,5.263158E-1,-4.2105263E-1,2.631579E-1,6.315789E-1,1.8164583E-2,-1.0526316E-1,1.5680203E-2,-4.7794018E-2,2.5302807E-2,9.617594E-2,-1.9351562E-2,-6.8833336E-2],"split_indices":[1,2,2,2,2,0,2,0,0,0,0,0,0],"split_type":[0,0,0,0,0,0,0,0,0,0,0,0,0],"sum_hessian":[9.6757345E0,5.2278595E0,4.447875E0,2.7939343E0,2.4339254E0,1.817661E0,2.6302142E0,1.7047583E0,1.0891759E0,1.3588489E0,1.0750765E0,1.1210891E0,1.5091251E0],"tree_param":{"num_deleted":"0","num_feature":"3","num_nodes":"13","size_leaf_vector":"1"}},{"base_weights":[-3.7436925E-2,-7.157443E-2,8.396149E-2,5.5708844E-2,-1.50987385E-2],"categories":[],"categories_nodes":[],"categories_segments":[],"categories_sizes":[],"default_left":[0,0,0,0,0],"id":112,"left_children":[1,-1,3,-1,-1],"loss_changes":[1.579818E-1,0E0,6.758383E-2,0E0,0E0],"parents":[2147483647,0,0,2,2],"right_children":[2,-1,4,-1,-1],"split_conditions":[2.8571429E-2,-7.157443E-2,2.4285714E-1,5.5708844E-2,-1.50987385E-2],"split_indices":[0,0,0,0,0],"split_type":[0,0,0,0,0],"sum_hessian":[4.6493835E0,1.386621E0,3.2627623E0,1.6386077E0,1.6241547E0],"tree_param":{"num_deleted":"0","num_feature":"3","num_nodes":"5","size_leaf_vector":"1"}},{"base_weights":[5.080699E-2,-8.264997E-2,1.6462024E-1,4.5128867E-2,9.9403776E-2,5.0823953E-2,-4.142553E-2],"categories":[],"categories_nodes":[],"categories_segments":[],"categories_sizes":[],"default_left":[0,0,0,0,0,0,0],"id":113,"left_children":[1,-1,3,5,-1,-1,-1],"loss_changes":[3.0363494E-1,0E0,1.0024078E-1,1.264504E-1,0E0,0E0,0E0],"parents":[2147483647,0,0,2,2,3,3],"right_children":[2,-1,4,6,-1,-1,-1],"split_conditions":[1.4285714E-2,-8.264997E-2,5.492958E-1,3.0985916E-1,9.9403776E-2,5.0823953E-2,-4.142553E-2],"split_indices":[0,0,1,1,0,0,0],"split_type":[0,0,0,0,0,0,0],"sum_hessian":[5.9546494E0,1.1724783E0,4.7821712E0,3.5258741E0,1.2562971E0,2.1456711E0,1.380203E0],"tree_param":{"num_deleted":"0","num_feature":"3","num_nodes":"7","size_leaf_vector":"1"}},{"base_weights":[-1.573282E-2,1.1460383E-1,-8.0474116E-2,-1.4987214E-2,1.8717176E-1,1.0153138E-1,-1.7880112E-2],"categories":[],"categories_nodes":[],"categories_segments":[],"categories_sizes":[],"default_left":[0,0,0,0,0,0,0],"id":114,"left_children":[1,3,-1,-1,5,-1,-1],"loss_changes":[2.0745131E-1,6.0007513E-2,0E0,0E0,1.3792232E-1,0E0,0E0],"parents":[2147483647,0,0,1,1,4,4],"right_children":[2,4,-1,-1,6,-1,-1],"split_conditions":[-1E0,-1.5857143E0,-8.0474116E-2,-1.4987214E-2,-9.2957747E-1,1.0153138E-1,-1.7880112E-2],"split_indices":[0,0,0,0,1,0,0],"split_type":[0,0,0,0,0,0,0],"sum_hessian":[4.3691645E0,3.2419581E0,1.1272061E0,1.0874782E0,2.15448E0,1.105421E0,1.0490592E0],"tree_param":{"num_deleted":"0","num_feature":"3","num_nodes":"7","size_leaf_vector":"1"}},{"base_weights":[-4.63929E-3,1.4741519E-1,-8.398071E-2,8.264402E-2,9.210176E-4],"categories":[],"categories_nodes":[],"categories_segments":[],"categories_sizes":[],"default_left":[0,0,0,0,0],"id":115,"left_children":[1,3,-1,-1,-1],"loss_changes":[2.454658E-1,6.935327E-2,0E0,0E0,0E0],"parents":[2147483647,0,0,1,1],"right_children":[2,4,-1,-1,-1],"split_conditions":[-3.943662E-1,-1.4857143E0,-8.398071E-2,8.264402E-2,9.210176E-4],"split_indices":[1,0,0,0,0],"split_type":[0,0,0,0,0],"sum_hessian":[3.8781362E0,2.7975094E0,1.0806266E0,1.0009615E0,1.796548E0],"tree_param":{"num_deleted":"0","num_feature":"3","num_nodes":"5","size_leaf_vector":"1"}},{"base_weights":[-1.2826684E-2,-1.14958644E-1,6.2870845E-2,-9.8475225E-2,3.4139823E-2,1.5877615E-1,-4.516174E-2,-2.8275961E-2,2.7666444E-1,2.8602513E-2,1.021495E-1],"categories":[],"categories_nodes":[],"categories_segments":[],"categories_sizes":[],"default_left":[0,0,0,0,0,0,0,0,0,0,0],"id":116,"left_children":[1,3,5,-1,-1,7,-1,-1,9,-1,-1],"loss_changes":[7.651341E-2,2.4074098E-1,1.4247872E-1,0E0,0E0,1.5982705E-1,0E0,0E0,5.881399E-3,0E0,0E0],"parents":[2147483647,0,0,1,1,2,2,5,5,8,8],"right_children":[2,4,6,-1,-1,8,-1,-1,10,-1,-1],"split_conditions":[1.5789473E-1,-2.4285714E-1,-4.2857143E-1,-9.8475225E-2,3.4139823E-2,-7.4647886E-1,-4.516174E-2,-2.8275961E-2,-4.6478873E-1,2.8602513E-2,1.021495E-1],"split_indices":[2,0,0,0,0,1,0,0,1,0,0],"split_type":[0,0,0,0,0,0,0,0,0,0,0],"sum_hessian":[7.9619236E0,3.1684105E0,4.7935133E0,1.4145607E0,1.7538499E0,3.48388E0,1.309633E0,1.170998E0,2.3128822E0,1.2515095E0,1.0613725E0],"tree_param":{"num_deleted":"0","num_feature":"3","num_nodes":"11","size_leaf_vector":"1"}},{"base_weights":[6.7979963E-3,9.7423434E-2,-9.767851E-2,-5.7530094E-2,2.4078031E-1,-7.6967135E-2,1.7519085E-3,1.036687E-2,-4.4719867E-2,2.5128685E-2,9.052637E-2,4.471603E-2,-5.1222447E-2],"categories":[],"categories_nodes":[],"categories_segments":[],"categories_sizes":[],"default_left":[0,0,0,0,0,0,0,0,0,0,0,0,0],"id":117,"left_children":[1,3,5,7,9,-1,11,-1,-1,-1,-1,-1,-1],"loss_changes":[1.0688356E-1,1.4730032E-1,8.379801E-2,3.6289744E-2,6.4466894E-3,0E0,1.3314117E-1,0E0,0E0,0E0,0E0,0E0,0E0],"parents":[2147483647,0,0,1,1,2,2,3,3,4,4,6,6],"right_children":[2,4,6,8,10,-1,12,-1,-1,-1,-1,-1,-1],"split_conditions":[-3.0985916E-1,5.263158E-1,-1.6901408E-1,2.631579E-1,6.315789E-1,-7.6967135E-2,1.4084508E-1,1.036687E-2,-4.4719867E-2,2.5128685E-2,9.052637E-2,4.471603E-2,-5.1222447E-2],